<?xml version="1.0"?>
<opencv_storage>
    <cascade>
        <stageType>BOOST</stageType>
        <featureType>HAAR</featureType>
        <height>20</height>
        <width>20</width>
        <stageParams>
            <boostType>GAB</boostType>
            <minHitRate>9.9500000476837158e-01</minHitRate>
            <maxFalseAlarm>4.0000000596046448e-01</maxFalseAlarm>
            <weightTrimRate>9.4999999999999996e-01</weightTrimRate>
            <maxDepth>1</maxDepth>
            <maxWeakCount>100</maxWeakCount>
        </stageParams>
        <featureParams>
            <maxCatCount>0</maxCatCount>
            <featSize>1</featSize>
            <mode>ALL</mode>
        </featureParams>
        <stageNum>20</stageNum>
        <stages>
            <!-- stage 0 -->
            <_>
                <maxWeakCount>3</maxWeakCount>
                <stageThreshold>-6.2807381153106689e-01</stageThreshold>
                <weakClassifiers>
                    <_>
                        <internalNodes>
                            0 -1 63 5.6598186492919922e-03
                        </internalNodes>
                        <leafValues>
                            -8.9062500000000000e-01 6.5269458293914795e-01
                        </leafValues>
                    </_>
                    <_>
                        <internalNodes>
                            0 -1 22 -2.8761485219001770e-01
                        </internalNodes>
                        <leafValues>
                            8.6735028028488159e-01 -6.1123818159103394e-01
                        </leafValues>
                    </_>
                    <_>
                        <internalNodes>
                            0 -1 41 3.9119771681725979e-03
                        </internalNodes>
                        <leafValues>
                            -5.5290371179580688e-01 8.7378937005996704e-01
                        </leafValues>
                    </_>
                </weakClassifiers>
            </_>
            <!-- stage 1 -->
            <_>
                <maxWeakCount>2</maxWeakCount>
                <stageThreshold>-1.7832922935485840e-01</stageThreshold>
                <weakClassifiers>
                    <_>
                        <internalNodes>
                            0 -1 3 -9.8978236317634583e-02
                        </internalNodes>
                        <leafValues>
                            7.3162937164306641e-01 -8.6281585693359375e-01
                        </leafValues>
                    </_>
                    <_>
                        <internalNodes>
                            0 -1 47 -5.3358040750026703e-03
                        </internalNodes>
                        <leafValues>
                            6.8448668718338013e-01 -6.3168948888778687e-01
                        </leafValues>
                    </_>
                </weakClassifiers>
            </_>
            <!-- stage 2 -->
            <_>
                <maxWeakCount>6</maxWeakCount>
                <stageThreshold>-9.9495434761047363e-01</stageThreshold>
                <weakClassifiers>
                    <_>
                        <internalNodes>
                            0 -1 4 -5.5715477466583252e-01
                        </internalNodes>
                        <leafValues>
                            6.7330676317214966e-01 -5.2802360057830811e-01
                        </leafValues>
                    </_>
                    <_>
                        <internalNodes>
                            0 -1 2 -7.9650853876955807e-05
                        </internalNodes>
                        <leafValues>
                            -7.7575397491455078e-01 4.9223366379737854e-01
                        </leafValues>
                    </_>
                    <_>
                        <internalNodes>
                            0 -1 73 4.3077048030681908e-04
                        </internalNodes>
                        <leafValues>
                            -7.5648266077041626e-01 4.5355650782585144e-01
                        </leafValues>
                    </_>
                    <_>
                        <internalNodes>
                            0 -1 29 1.1745430529117584e-03
                        </internalNodes>
                        <leafValues>
                            -4.5521691441535950e-01 6.7347121238708496e-01
                        </leafValues>
                    </_>
                    <_>
                        <internalNodes>
                            0 -1 65 2.2903974168002605e-03
                        </internalNodes>
                        <leafValues>
                            -4.0581595897674561e-01 7.0652782917022705e-01
                        </leafValues>
                    </_>
                    <_>
                        <internalNodes>
                            0 -1 36 3.3963709138333797e-03
                        </internalNodes>
                        <leafValues>
                            -3.8733544945716858e-01 7.9384171962738037e-01
                        </leafValues>
                    </_>
                </weakClassifiers>
            </_>
            <!-- stage 3 -->
            <_>
                <maxWeakCount>5</maxWeakCount>
                <stageThreshold>-9.9685847759246826e-01</stageThreshold>
                <weakClassifiers>
                    <_>
                        <internalNodes>
                            0 -1 67 1.3151361048221588e-01
                        </internalNodes>
                        <leafValues>
                            -8.1220656633377075e-01 4.3236073851585388e-01
                        </leafValues>
                    </_>
                    <_>
                        <internalNodes>
                            0 -1 12 -1.8897719201049767e-05
                        </internalNodes>
                        <leafValues>
                            3.1777969002723694e-01 -6.7699503898620605e-01
                        </leafValues>
                    </_>
                    <_>
                        <internalNodes>
                            0 -1 89 -6.6924870014190674e-02
                        </internalNodes>
                        <leafValues>
                            8.2180792093276978e-01 -3.4336876869201660e-01
                        </leafValues>
                    </_>
                    <_>
                        <internalNodes>
                            0 -1 45 -3.5305260098539293e-05
                        </internalNodes>
                        <leafValues>
                            4.7265028953552246e-01 -6.3808906078338623e-01
                        </leafValues>
                    </_>
                    <_>
                        <internalNodes>
                            0 -1 10 -3.9207974623423070e-05
                        </internalNodes>
                        <leafValues>
                            -8.8150572776794434e-01 2.3919938504695892e-01
                        </leafValues>
                    </_>
                </weakClassifiers>
            </_>
            <!-- stage 4 -->
            <_>
                <maxWeakCount>6</maxWeakCount>
                <stageThreshold>-1.0473723411560059e+00</stageThreshold>
                <weakClassifiers>
                    <_>
                        <internalNodes>
                            0 -1 25 -1.2331705074757338e-03
                        </internalNodes>
                        <leafValues>
                            4.7508305311203003e-01 -5.2941179275512695e-01
                        </leafValues>
                    </_>
                    <_>
                        <internalNodes>
                            0 -1 13 -9.5578774809837341e-02
                        </internalNodes>
                        <leafValues>
                            6.8396097421646118e-01 -3.4952738881111145e-01
                        </leafValues>
                    </_>
                    <_>
                        <internalNodes>
                            0 -1 56 -3.9855749346315861e-03
                        </internalNodes>
                        <leafValues>
                            4.4910967350006104e-01 -5.4988312721252441e-01
                        </leafValues>
                    </_>
                    <_>
                        <internalNodes>
                            0 -1 27 -3.4638371318578720e-02
                        </internalNodes>
                        <leafValues>
                            8.4849691390991211e-01 -3.6914417147636414e-01
                        </leafValues>
                    </_>
                    <_>
                        <internalNodes>
                            0 -1 82 -6.9404413807205856e-05
                        </internalNodes>
                        <leafValues>
                            -9.5925033092498779e-01 3.1211760640144348e-01
                        </leafValues>
                    </_>
                    <_>
                        <internalNodes>
                            0 -1 82 3.2842066138982773e-04
                        </internalNodes>
                        <leafValues>
                            3.1776982545852661e-01 -7.7916467189788818e-01
                        </leafValues>
                    </_>
                </weakClassifiers>
            </_>
            <!-- stage 5 -->
            <_>
                <maxWeakCount>6</maxWeakCount>
                <stageThreshold>-6.6924250125885010e-01</stageThreshold>
                <weakClassifiers>
                    <_>
                        <internalNodes>
                            0 -1 53 2.6743393391370773e-03
                        </internalNodes>
                        <leafValues>
                            -3.8701298832893372e-01 6.7804878950119019e-01
                        </leafValues>
                    </_>
                    <_>
                        <internalNodes>
                            0 -1 37 -4.1783007327467203e-04
                        </internalNodes>
                        <leafValues>
                            4.7338020801544189e-01 -5.7434564828872681e-01
                        </leafValues>
                    </_>
                    <_>
                        <internalNodes>
                            0 -1 20 1.5967985382303596e-04
                        </internalNodes>
                        <leafValues>
                            2.6103520393371582e-01 -9.5554488897323608e-01
                        </leafValues>
                    </_>
                    <_>
                        <internalNodes>
                            0 -1 49 -2.7919735293835402e-04
                        </internalNodes>
                        <leafValues>
                            3.6754688620567322e-01 -6.2476432323455811e-01
                        </leafValues>
                    </_>
                    <_>
                        <internalNodes>
                            0 -1 68 1.2607148382812738e-03
                        </internalNodes>
                        <leafValues>
                            -5.1832228899002075e-01 4.0255579352378845e-01
                        </leafValues>
                    </_>
                    <_>
                        <internalNodes>
                            0 -1 92 7.6748066931031644e-05
                        </internalNodes>
                        <leafValues>
                            2.5328943133354187e-01 -8.5318636894226074e-01
                        </leafValues>
                    </_>
                </weakClassifiers>
            </_>
            <!-- stage 6 -->
            <_>
                <maxWeakCount>8</maxWeakCount>
                <stageThreshold>-5.0216990709304810e-01</stageThreshold>
                <weakClassifiers>
                    <_>
                        <internalNodes>
                            0 -1 5 -2.8556227684020996e-01
                        </internalNodes>
                        <leafValues>
                            5.3846156597137451e-01 -4.1690963506698608e-01
                        </leafValues>
                    </_>
                    <_>
                        <internalNodes>
                            0 -1 21 -6.1645847745239735e-04
                        </internalNodes>
                        <leafValues>
                            4.9479293823242188e-01 -4.6923980116844177e-01
                        </leafValues>
                    </_>
                    <_>
                        <internalNodes>
                            0 -1 48 6.9826105609536171e-03
                        </internalNodes>
                        <leafValues>
                            3.2009243965148926e-01 -7.2885227203369141e-01
                        </leafValues>
                    </_>
                    <_>
                        <internalNodes>
                            0 -1 60 -6.3974480144679546e-04
                        </internalNodes>
                        <leafValues>
                            4.2619916796684265e-01 -5.8348846435546875e-01
                        </leafValues>
                    </_>
                    <_>
                        <internalNodes>
                            0 -1 17 -6.9216606789268553e-05
                        </internalNodes>
                        <leafValues>
                            -8.9299404621124268e-01 2.1592567861080170e-01
                        </leafValues>
                    </_>
                    <_>
                        <internalNodes>
                            0 -1 86 -1.4911736547946930e-01
                        </internalNodes>
                        <leafValues>
                            8.0703353881835938e-01 -2.8639993071556091e-01
                        </leafValues>
                    </_>
                    <_>
                        <internalNodes>
                            0 -1 31 -2.6523938868194818e-03
                        </internalNodes>
                        <leafValues>
                            6.4070898294448853e-01 -3.5707780718803406e-01
                        </leafValues>
                    </_>
                    <_>
                        <internalNodes>
                            0 -1 19 4.1191873606294394e-05
                        </internalNodes>
                        <leafValues>
                            2.9513102769851685e-01 -7.8765994310379028e-01
                        </leafValues>
                    </_>
                </weakClassifiers>
            </_>
            <!-- stage 7 -->
            <_>
                <maxWeakCount>6</maxWeakCount>
                <stageThreshold>-1.2188880443572998e+00</stageThreshold>
                <weakClassifiers>
                    <_>
                        <internalNodes>
                            0 -1 54 1.2537273578345776e-03
                        </internalNodes>
                        <leafValues>
                            -5.3378379344940186e-01 5.0340133905410767e-01
                        </leafValues>
                    </_>
                    <_>
                        <internalNodes>
                            0 -1 69 -5.5217955261468887e-02
                        </internalNodes>
                        <leafValues>
                            7.7969193458557129e-01 -3.3371901512145996e-01
                        </leafValues>
                    </_>
                    <_>
                        <internalNodes>
                            0 -1 33 -5.8427016483619809e-04
                        </internalNodes>
                        <leafValues>
                            6.1111217737197876e-01 -4.8013758659362793e-01
                        </leafValues>
                    </_>
                    <_>
                        <internalNodes>
                            0 -1 23 -6.4472696976736188e-05
                        </internalNodes>
                        <leafValues>
                            -6.8956410884857178e-01 3.5735553503036499e-01
                        </leafValues>
                    </_>
                    <_>
                        <internalNodes>
                            0 -1 16 -3.6811078898608685e-03
                        </internalNodes>
                        <leafValues>
                            2.9969957470893860e-01 -8.9576709270477295e-01
                        </leafValues>
                    </_>
                    <_>
                        <internalNodes>
                            0 -1 88 1.5268602510332130e-05
                        </internalNodes>
                        <leafValues>
                            -5.7263296842575073e-01 3.9332771301269531e-01
                        </leafValues>
                    </_>
                </weakClassifiers>
            </_>
            <!-- stage 8 -->
            <_>
                <maxWeakCount>4</maxWeakCount>
                <stageThreshold>-4.2225089669227600e-01</stageThreshold>
                <weakClassifiers>
                    <_>
                        <internalNodes>
                            0 -1 74 -6.6954968497157097e-04
                        </internalNodes>
                        <leafValues>
                            4.3016758561134338e-01 -7.0689654350280762e-01
                        </leafValues>
                    </_>
                    <_>
                        <internalNodes>
                            0 -1 54 6.7965389462187886e-04
                        </internalNodes>
                        <leafValues>
                            -6.5102374553680420e-01 4.4818693399429321e-01
                        </leafValues>
                    </_>
                    <_>
                        <internalNodes>
                            0 -1 15 1.0319627472199500e-04
                        </internalNodes>
                        <leafValues>
                            3.8136968016624451e-01 -7.6583075523376465e-01
                        </leafValues>
                    </_>
                    <_>
                        <internalNodes>
                            0 -1 70 -6.8627379368990660e-04
                        </internalNodes>
                        <leafValues>
                            6.0228949785232544e-01 -4.7584950923919678e-01
                        </leafValues>
                    </_>
                </weakClassifiers>
            </_>
            <!-- stage 9 -->
            <_>
                <maxWeakCount>4</maxWeakCount>
                <stageThreshold>-4.6868786215782166e-01</stageThreshold>
                <weakClassifiers>
                    <_>
                        <internalNodes>
                            0 -1 8 -4.8201521858572960e-03
                        </internalNodes>
                        <leafValues>
                            3.5121950507164001e-01 -8.5555553436279297e-01
                        </leafValues>
                    </_>
                    <_>
                        <internalNodes>
                            0 -1 11 1.5426730897161178e-05
                        </internalNodes>
                        <leafValues>
                            -5.5510330200195312e-01 5.3052192926406860e-01
                        </leafValues>
                    </_>
                    <_>
                        <internalNodes>
                            0 -1 38 -5.4988672491163015e-04
                        </internalNodes>
                        <leafValues>
                            5.1900148391723633e-01 -5.6646347045898438e-01
                        </leafValues>
                    </_>
                    <_>
                        <internalNodes>
                            0 -1 62 -2.3686564527451992e-03
                        </internalNodes>
                        <leafValues>
                            -7.7999877929687500e-01 4.2280924320220947e-01
                        </leafValues>
                    </_>
                </weakClassifiers>
            </_>
            <!-- stage 10 -->
            <_>
                <maxWeakCount>4</maxWeakCount>
                <stageThreshold>-2.5827258825302124e-01</stageThreshold>
                <weakClassifiers>
                    <_>
                        <internalNodes>
                            0 -1 40 3.0038200784474611e-03
                        </internalNodes>
                        <leafValues>
                            -3.9853301644325256e-01 8.4530389308929443e-01
                        </leafValues>
                    </_>
                    <_>
                        <internalNodes>
                            0 -1 35 -1.1460159439593554e-03
                        </internalNodes>
                        <leafValues>
                            -6.7601734399795532e-01 4.9498960375785828e-01
                        </leafValues>
                    </_>
                    <_>
                        <internalNodes>
                            0 -1 91 4.4817512389272451e-04
                        </internalNodes>
                        <leafValues>
                            4.5171922445297241e-01 -7.4594753980636597e-01
                        </leafValues>
                    </_>
                    <_>
                        <internalNodes>
                            0 -1 78 -2.0922037947457284e-04
                        </internalNodes>
                        <leafValues>
                            -7.9180657863616943e-01 3.9121836423873901e-01
                        </leafValues>
                    </_>
                </weakClassifiers>
            </_>
            <!-- stage 11 -->
            <_>
                <maxWeakCount>5</maxWeakCount>
                <stageThreshold>-4.0535086393356323e-01</stageThreshold>
                <weakClassifiers>
                    <_>
                        <internalNodes>
                            0 -1 55 -5.5441074073314667e-03
                        </internalNodes>
                        <leafValues>
                            7.2248804569244385e-01 -4.2257216572761536e-01
                        </leafValues>
                    </_>
                    <_>
                        <internalNodes>
                            0 -1 64 2.7871347265318036e-04
                        </internalNodes>
                        <leafValues>
                            4.3071424961090088e-01 -7.0804142951965332e-01
                        </leafValues>
                    </_>
                    <_>
                        <internalNodes>
                            0 -1 42 5.7588763535022736e-02
                        </internalNodes>
                        <leafValues>
                            -3.8569012284278870e-01 7.7911853790283203e-01
                        </leafValues>
                    </_>
                    <_>
                        <internalNodes>
                            0 -1 90 -3.5364500945433974e-05
                        </internalNodes>
                        <leafValues>
                            -7.4714207649230957e-01 4.4402471184730530e-01
                        </leafValues>
                    </_>
                    <_>
                        <internalNodes>
                            0 -1 75 -7.6203886419534683e-04
                        </internalNodes>
                        <leafValues>
                            7.0816677808761597e-01 -4.4546937942504883e-01
                        </leafValues>
                    </_>
                </weakClassifiers>
            </_>
            <!-- stage 12 -->
            <_>
                <maxWeakCount>4</maxWeakCount>
                <stageThreshold>-2.9635298252105713e-01</stageThreshold>
                <weakClassifiers>
                    <_>
                        <internalNodes>
                            0 -1 87 -1.6532506560906768e-04
                        </internalNodes>
                        <leafValues>
                            -7.6271188259124756e-01 4.8022598028182983e-01
                        </leafValues>
                    </_>
                    <_>
                        <internalNodes>
                            0 -1 24 5.8335084468126297e-03
                        </internalNodes>
                        <leafValues>
                            -4.8675554990768433e-01 8.8469761610031128e-01
                        </leafValues>
                    </_>
                    <_>
                        <internalNodes>
                            0 -1 6 -5.5001291912049055e-04
                        </internalNodes>
                        <leafValues>
                            -9.2523515224456787e-01 3.7935450673103333e-01
                        </leafValues>
                    </_>
                    <_>
                        <internalNodes>
                            0 -1 28 -2.8632668778300285e-02
                        </internalNodes>
                        <leafValues>
                            5.7375991344451904e-01 -5.4635989665985107e-01
                        </leafValues>
                    </_>
                </weakClassifiers>
            </_>
            <!-- stage 13 -->
            <_>
                <maxWeakCount>5</maxWeakCount>
                <stageThreshold>-1.0354773998260498e+00</stageThreshold>
                <weakClassifiers>
                    <_>
                        <internalNodes>
                            0 -1 76 -7.0912942290306091e-02
                        </internalNodes>
                        <leafValues>
                            6.3333332538604736e-01 -4.6285715699195862e-01
                        </leafValues>
                    </_>
                    <_>
                        <internalNodes>
                            0 -1 66 1.5764556883368641e-04
                        </internalNodes>
                        <leafValues>
                            -8.5626757144927979e-01 3.8822591304779053e-01
                        </leafValues>
                    </_>
                    <_>
                        <internalNodes>
                            0 -1 7 5.0004327204078436e-04
                        </internalNodes>
                        <leafValues>
                            2.7400869131088257e-01 -8.3708751201629639e-01
                        </leafValues>
                    </_>
                    <_>
                        <internalNodes>
                            0 -1 52 -4.9326784210279584e-04
                        </internalNodes>
                        <leafValues>
                            -6.0812431573867798e-01 4.7042253613471985e-01
                        </leafValues>
                    </_>
                    <_>
                        <internalNodes>
                            0 -1 26 2.4352982291020453e-04
                        </internalNodes>
                        <leafValues>
                            -5.9691226482391357e-01 4.8436567187309265e-01
                        </leafValues>
                    </_>
                </weakClassifiers>
            </_>
            <!-- stage 14 -->
            <_>
                <maxWeakCount>4</maxWeakCount>
                <stageThreshold>-3.8052228093147278e-01</stageThreshold>
                <weakClassifiers>
                    <_>
                        <internalNodes>
                            0 -1 83 5.7648619986139238e-05
                        </internalNodes>
                        <leafValues>
                            -6.0501569509506226e-01 6.7527675628662109e-01
                        </leafValues>
                    </_>
                    <_>
                        <internalNodes>
                            0 -1 58 -2.8167599812150002e-03
                        </internalNodes>
                        <leafValues>
                            -5.7061547040939331e-01 5.1203560829162598e-01
                        </leafValues>
                    </_>
                    <_>
                        <internalNodes>
                            0 -1 80 -6.1644277593586594e-05
                        </internalNodes>
                        <leafValues>
                            4.7382798790931702e-01 -7.0414191484451294e-01
                        </leafValues>
                    </_>
                    <_>
                        <internalNodes>
                            0 -1 85 7.7574310125783086e-05
                        </internalNodes>
                        <leafValues>
                            4.1659975051879883e-01 -7.2295528650283813e-01
                        </leafValues>
                    </_>
                </weakClassifiers>
            </_>
            <!-- stage 15 -->
            <_>
                <maxWeakCount>6</maxWeakCount>
                <stageThreshold>-8.8924151659011841e-01</stageThreshold>
                <weakClassifiers>
                    <_>
                        <internalNodes>
                            0 -1 77 1.7445140983909369e-03
                        </internalNodes>
                        <leafValues>
                            -3.5514017939567566e-01 8.7654322385787964e-01
                        </leafValues>
                    </_>
                    <_>
                        <internalNodes>
                            0 -1 61 6.8385540507733822e-03
                        </internalNodes>
                        <leafValues>
                            4.4772589206695557e-01 -7.0930713415145874e-01
                        </leafValues>
                    </_>
                    <_>
                        <internalNodes>
                            0 -1 34 -5.3000105544924736e-03
                        </internalNodes>
                        <leafValues>
                            -7.5242334604263306e-01 4.3201416730880737e-01
                        </leafValues>
                    </_>
                    <_>
                        <internalNodes>
                            0 -1 81 6.9502107799053192e-03
                        </internalNodes>
                        <leafValues>
                            -4.6945178508758545e-01 7.2647303342819214e-01
                        </leafValues>
                    </_>
                    <_>
                        <internalNodes>
                            0 -1 51 6.7899464629590511e-03
                        </internalNodes>
                        <leafValues>
                            -3.2058289647102356e-01 9.6408712863922119e-01
                        </leafValues>
                    </_>
                    <_>
                        <internalNodes>
                            0 -1 18 5.6263394071720541e-05
                        </internalNodes>
                        <leafValues>
                            -5.7751744985580444e-01 5.6063079833984375e-01
                        </leafValues>
                    </_>
                </weakClassifiers>
            </_>
            <!-- stage 16 -->
            <_>
                <maxWeakCount>6</maxWeakCount>
                <stageThreshold>-6.3328397274017334e-01</stageThreshold>
                <weakClassifiers>
                    <_>
                        <internalNodes>
                            0 -1 79 5.6920245697256178e-05
                        </internalNodes>
                        <leafValues>
                            -5.8718860149383545e-01 5.0161814689636230e-01
                        </leafValues>
                    </_>
                    <_>
                        <internalNodes>
                            0 -1 59 -3.8026156835258007e-04
                        </internalNodes>
                        <leafValues>
                            -6.5674871206283569e-01 4.3782100081443787e-01
                        </leafValues>
                    </_>
                    <_>
                        <internalNodes>
                            0 -1 57 7.7650870662182570e-04
                        </internalNodes>
                        <leafValues>
                            4.2599186301231384e-01 -7.2933423519134521e-01
                        </leafValues>
                    </_>
                    <_>
                        <internalNodes>
                            0 -1 46 7.7126757241785526e-04
                        </internalNodes>
                        <leafValues>
                            -4.7348213195800781e-01 6.7728036642074585e-01
                        </leafValues>
                    </_>
                    <_>
                        <internalNodes>
                            0 -1 1 1.8797916709445417e-05
                        </internalNodes>
                        <leafValues>
                            3.3604249358177185e-01 -9.0595901012420654e-01
                        </leafValues>
                    </_>
                    <_>
                        <internalNodes>
                            0 -1 32 -2.2776073310524225e-03
                        </internalNodes>
                        <leafValues>
                            4.5909315347671509e-01 -7.0594924688339233e-01
                        </leafValues>
                    </_>
                </weakClassifiers>
            </_>
            <!-- stage 17 -->
            <_>
                <maxWeakCount>4</maxWeakCount>
                <stageThreshold>-2.2316163778305054e-01</stageThreshold>
                <weakClassifiers>
                    <_>
                        <internalNodes>
                            0 -1 71 -2.7982711326330900e-03
                        </internalNodes>
                        <leafValues>
                            -6.1454546451568604e-01 5.0476193428039551e-01
                        </leafValues>
                    </_>
                    <_>
                        <internalNodes>
                            0 -1 84 1.0288197081536055e-03
                        </internalNodes>
                        <leafValues>
                            3.0988255143165588e-01 -9.6166646480560303e-01
                        </leafValues>
                    </_>
                    <_>
                        <internalNodes>
                            0 -1 39 -3.6249193362891674e-04
                        </internalNodes>
                        <leafValues>
                            6.1100715398788452e-01 -5.3720802068710327e-01
                        </leafValues>
                    </_>
                    <_>
                        <internalNodes>
                            0 -1 30 9.2983397189527750e-04
                        </internalNodes>
                        <leafValues>
                            -4.3222099542617798e-01 7.7095091342926025e-01
                        </leafValues>
                    </_>
                </weakClassifiers>
            </_>
            <!-- stage 18 -->
            <_>
                <maxWeakCount>5</maxWeakCount>
                <stageThreshold>-1.1338160037994385e+00</stageThreshold>
                <weakClassifiers>
                    <_>
                        <internalNodes>
                            0 -1 88 1.5268602510332130e-05
                        </internalNodes>
                        <leafValues>
                            -5.3488373756408691e-01 7.0731705427169800e-01
                        </leafValues>
                    </_>
                    <_>
                        <internalNodes>
                            0 -1 43 1.6171760857105255e-02
                        </internalNodes>
                        <leafValues>
                            3.8396343588829041e-01 -9.1235601902008057e-01
                        </leafValues>
                    </_>
                    <_>
                        <internalNodes>
                            0 -1 44 1.0060744825750589e-03
                        </internalNodes>
                        <leafValues>
                            4.3704700469970703e-01 -6.6247832775115967e-01
                        </leafValues>
                    </_>
                    <_>
                        <internalNodes>
                            0 -1 0 9.2774353106506169e-05
                        </internalNodes>
                        <leafValues>
                            -5.4503399133682251e-01 5.4646033048629761e-01
                        </leafValues>
                    </_>
                    <_>
                        <internalNodes>
                            0 -1 50 -4.1961176320910454e-03
                        </internalNodes>
                        <leafValues>
                            -8.7490874528884888e-01 3.5429516434669495e-01
                        </leafValues>
                    </_>
                </weakClassifiers>
            </_>
            <!-- stage 19 -->
            <_>
                <maxWeakCount>4</maxWeakCount>
                <stageThreshold>-3.6808651685714722e-01</stageThreshold>
                <weakClassifiers>
                    <_>
                        <internalNodes>
                            0 -1 9 -1.1419571936130524e-02
                        </internalNodes>
                        <leafValues>
                            -5.5076920986175537e-01 6.3773584365844727e-01
                        </leafValues>
                    </_>
                    <_>
                        <internalNodes>
                            0 -1 14 -1.3553936732932925e-03
                        </internalNodes>
                        <leafValues>
                            -9.1158825159072876e-01 3.7414646148681641e-01
                        </leafValues>
                    </_>
                    <_>
                        <internalNodes>
                            0 -1 72 6.0085192671976984e-05
                        </internalNodes>
                        <leafValues>
                            -8.0857735872268677e-01 3.7864595651626587e-01
                        </leafValues>
                    </_>
                    <_>
                        <internalNodes>
                            0 -1 41 4.7598984092473984e-03
                        </internalNodes>
                        <leafValues>
                            -5.2127832174301147e-01 7.1562498807907104e-01
                        </leafValues>
                    </_>
                </weakClassifiers>
            </_>
        </stages>
        <features>
            <_>
                <rects>
                    <_>
                        0 0 1 15 -1.
                    </_>
                    <_>
                        0 5 1 5 3.
                    </_>
                </rects>
                <tilted>0</tilted>
            </_>
            <_>
                <rects>
                    <_>
                        0 0 1 16 -1.
                    </_>
                    <_>
                        0 8 1 8 2.
                    </_>
                </rects>
                <tilted>0</tilted>
            </_>
            <_>
                <rects>
                    <_>
                        0 0 4 1 -1.
                    </_>
                    <_>
                        2 0 2 1 2.
                    </_>
                </rects>
                <tilted>0</tilted>
            </_>
            <_>
                <rects>
                    <_>
                        0 0 8 17 -1.
                    </_>
                    <_>
                        4 0 4 17 2.
                    </_>
                </rects>
                <tilted>0</tilted>
            </_>
            <_>
                <rects>
                    <_>
                        0 0 20 14 -1.
                    </_>
                    <_>
                        5 0 10 14 2.
                    </_>
                </rects>
                <tilted>0</tilted>
            </_>
            <_>
                <rects>
                    <_>
                        0 0 12 11 -1.
                    </_>
                    <_>
                        6 0 6 11 2.
                    </_>
                </rects>
                <tilted>0</tilted>
            </_>
            <_>
                <rects>
                    <_>
                        0 4 1 12 -1.
                    </_>
                    <_>
                        0 7 1 6 2.
                    </_>
                </rects>
                <tilted>0</tilted>
            </_>
            <_>
                <rects>
                    <_>
                        0 5 3 6 -1.
                    </_>
                    <_>
                        0 8 3 3 2.
                    </_>
                </rects>
                <tilted>0</tilted>
            </_>
            <_>
                <rects>
                    <_>
                        0 7 6 12 -1.
                    </_>
                    <_>
                        3 7 3 12 2.
                    </_>
                </rects>
                <tilted>0</tilted>
            </_>
            <_>
                <rects>
                    <_>
                        0 8 4 12 -1.
                    </_>
                    <_>
                        0 14 4 6 2.
                    </_>
                </rects>
                <tilted>0</tilted>
            </_>
            <_>
                <rects>
                    <_>
                        0 9 2 2 -1.
                    </_>
                    <_>
                        0 9 1 1 2.
                    </_>
                    <_>
                        1 10 1 1 2.
                    </_>
                </rects>
                <tilted>0</tilted>
            </_>
            <_>
                <rects>
                    <_>
                        0 9 2 8 -1.
                    </_>
                    <_>
                        0 11 2 4 2.
                    </_>
                </rects>
                <tilted>0</tilted>
            </_>
            <_>
                <rects>
                    <_>
                        0 10 1 10 -1.
                    </_>
                    <_>
                        0 15 1 5 2.
                    </_>
                </rects>
                <tilted>0</tilted>
            </_>
            <_>
                <rects>
                    <_>
                        0 10 20 2 -1.
                    </_>
                    <_>
                        5 10 10 2 2.
                    </_>
                </rects>
                <tilted>0</tilted>
            </_>
            <_>
                <rects>
                    <_>
                        0 12 6 3 -1.
                    </_>
                    <_>
                        0 13 6 1 3.
                    </_>
                </rects>
                <tilted>0</tilted>
            </_>
            <_>
                <rects>
                    <_>
                        1 0 2 1 -1.
                    </_>
                    <_>
                        1 0 1 1 2.
                    </_>
                </rects>
                <tilted>1</tilted>
            </_>
            <_>
                <rects>
                    <_>
                        1 0 14 2 -1.
                    </_>
                    <_>
                        8 0 7 2 2.
                    </_>
                </rects>
                <tilted>0</tilted>
            </_>
            <_>
                <rects>
                    <_>
                        1 9 3 1 -1.
                    </_>
                    <_>
                        2 10 1 1 3.
                    </_>
                </rects>
                <tilted>1</tilted>
            </_>
            <_>
                <rects>
                    <_>
                        1 13 6 1 -1.
                    </_>
                    <_>
                        3 15 2 1 3.
                    </_>
                </rects>
                <tilted>1</tilted>
            </_>
            <_>
                <rects>
                    <_>
                        1 15 1 2 -1.
                    </_>
                    <_>
                        1 16 1 1 2.
                    </_>
                </rects>
                <tilted>0</tilted>
            </_>
            <_>
                <rects>
                    <_>
                        2 1 1 2 -1.
                    </_>
                    <_>
                        2 1 1 1 2.
                    </_>
                </rects>
                <tilted>1</tilted>
            </_>
            <_>
                <rects>
                    <_>
                        2 1 4 2 -1.
                    </_>
                    <_>
                        2 2 4 1 2.
                    </_>
                </rects>
                <tilted>0</tilted>
            </_>
            <_>
                <rects>
                    <_>
                        2 3 16 16 -1.
                    </_>
                    <_>
                        6 3 8 16 2.
                    </_>
                </rects>
                <tilted>0</tilted>
            </_>
            <_>
                <rects>
                    <_>
                        2 7 1 8 -1.
                    </_>
                    <_>
                        2 9 1 4 2.
                    </_>
                </rects>
                <tilted>0</tilted>
            </_>
            <_>
                <rects>
                    <_>
                        2 18 12 2 -1.
                    </_>
                    <_>
                        2 19 12 1 2.
                    </_>
                </rects>
                <tilted>0</tilted>
            </_>
            <_>
                <rects>
                    <_>
                        3 0 4 2 -1.
                    </_>
                    <_>
                        3 1 4 1 2.
                    </_>
                </rects>
                <tilted>0</tilted>
            </_>
            <_>
                <rects>
                    <_>
                        3 5 3 4 -1.
                    </_>
                    <_>
                        3 6 3 2 2.
                    </_>
                </rects>
                <tilted>0</tilted>
            </_>
            <_>
                <rects>
                    <_>
                        3 6 16 1 -1.
                    </_>
                    <_>
                        7 6 8 1 2.
                    </_>
                </rects>
                <tilted>0</tilted>
            </_>
            <_>
                <rects>
                    <_>
                        4 0 4 8 -1.
                    </_>
                    <_>
                        6 0 2 8 2.
                    </_>
                </rects>
                <tilted>0</tilted>
            </_>
            <_>
                <rects>
                    <_>
                        4 1 4 2 -1.
                    </_>
                    <_>
                        4 1 2 1 2.
                    </_>
                    <_>
                        6 2 2 1 2.
                    </_>
                </rects>
                <tilted>0</tilted>
            </_>
            <_>
                <rects>
                    <_>
                        4 3 10 4 -1.
                    </_>
                    <_>
                        4 4 10 2 2.
                    </_>
                </rects>
                <tilted>0</tilted>
            </_>
            <_>
                <rects>
                    <_>
                        4 16 6 4 -1.
                    </_>
                    <_>
                        4 16 3 2 2.
                    </_>
                    <_>
                        7 18 3 2 2.
                    </_>
                </rects>
                <tilted>0</tilted>
            </_>
            <_>
                <rects>
                    <_>
                        4 19 6 1 -1.
                    </_>
                    <_>
                        7 19 3 1 2.
                    </_>
                </rects>
                <tilted>0</tilted>
            </_>
            <_>
                <rects>
                    <_>
                        5 0 1 2 -1.
                    </_>
                    <_>
                        5 1 1 1 2.
                    </_>
                </rects>
                <tilted>0</tilted>
            </_>
            <_>
                <rects>
                    <_>
                        5 10 12 4 -1.
                    </_>
                    <_>
                        5 10 6 2 2.
                    </_>
                    <_>
                        11 12 6 2 2.
                    </_>
                </rects>
                <tilted>0</tilted>
            </_>
            <_>
                <rects>
                    <_>
                        5 12 9 4 -1.
                    </_>
                    <_>
                        5 13 9 2 2.
                    </_>
                </rects>
                <tilted>0</tilted>
            </_>
            <_>
                <rects>
                    <_>
                        5 17 8 3 -1.
                    </_>
                    <_>
                        5 18 8 1 3.
                    </_>
                </rects>
                <tilted>0</tilted>
            </_>
            <_>
                <rects>
                    <_>
                        6 0 2 1 -1.
                    </_>
                    <_>
                        7 0 1 1 2.
                    </_>
                </rects>
                <tilted>0</tilted>
            </_>
            <_>
                <rects>
                    <_>
                        6 0 3 1 -1.
                    </_>
                    <_>
                        7 1 1 1 3.
                    </_>
                </rects>
                <tilted>1</tilted>
            </_>
            <_>
                <rects>
                    <_>
                        6 12 10 2 -1.
                    </_>
                    <_>
                        6 13 10 1 2.
                    </_>
                </rects>
                <tilted>0</tilted>
            </_>
            <_>
                <rects>
                    <_>
                        7 0 6 1 -1.
                    </_>
                    <_>
                        9 0 2 1 3.
                    </_>
                </rects>
                <tilted>0</tilted>
            </_>
            <_>
                <rects>
                    <_>
                        7 0 5 2 -1.
                    </_>
                    <_>
                        7 1 5 1 2.
                    </_>
                </rects>
                <tilted>0</tilted>
            </_>
            <_>
                <rects>
                    <_>
                        7 0 11 20 -1.
                    </_>
                    <_>
                        7 5 11 10 2.
                    </_>
                </rects>
                <tilted>0</tilted>
            </_>
            <_>
                <rects>
                    <_>
                        7 2 3 6 -1.
                    </_>
                    <_>
                        8 4 1 2 9.
                    </_>
                </rects>
                <tilted>0</tilted>
            </_>
            <_>
                <rects>
                    <_>
                        7 7 3 3 -1.
                    </_>
                    <_>
                        8 7 1 3 3.
                    </_>
                </rects>
                <tilted>0</tilted>
            </_>
            <_>
                <rects>
                    <_>
                        7 11 6 2 -1.
                    </_>
                    <_>
                        7 12 6 1 2.
                    </_>
                </rects>
                <tilted>0</tilted>
            </_>
            <_>
                <rects>
                    <_>
                        8 0 4 1 -1.
                    </_>
                    <_>
                        9 0 2 1 2.
                    </_>
                </rects>
                <tilted>0</tilted>
            </_>
            <_>
                <rects>
                    <_>
                        8 0 10 2 -1.
                    </_>
                    <_>
                        8 0 5 1 2.
                    </_>
                    <_>
                        13 1 5 1 2.
                    </_>
                </rects>
                <tilted>0</tilted>
            </_>
            <_>
                <rects>
                    <_>
                        8 6 4 13 -1.
                    </_>
                    <_>
                        10 6 2 13 2.
                    </_>
                </rects>
                <tilted>0</tilted>
            </_>
            <_>
                <rects>
                    <_>
                        8 7 2 6 -1.
                    </_>
                    <_>
                        8 10 2 3 2.
                    </_>
                </rects>
                <tilted>0</tilted>
            </_>
            <_>
                <rects>
                    <_>
                        8 12 6 4 -1.
                    </_>
                    <_>
                        8 12 3 2 2.
                    </_>
                    <_>
                        11 14 3 2 2.
                    </_>
                </rects>
                <tilted>0</tilted>
            </_>
            <_>
                <rects>
                    <_>
                        8 12 4 4 -1.
                    </_>
                    <_>
                        7 13 4 2 2.
                    </_>
                </rects>
                <tilted>1</tilted>
            </_>
            <_>
                <rects>
                    <_>
                        8 14 3 1 -1.
                    </_>
                    <_>
                        9 15 1 1 3.
                    </_>
                </rects>
                <tilted>1</tilted>
            </_>
            <_>
                <rects>
                    <_>
                        8 18 4 2 -1.
                    </_>
                    <_>
                        8 19 4 1 2.
                    </_>
                </rects>
                <tilted>0</tilted>
            </_>
            <_>
                <rects>
                    <_>
                        9 0 2 3 -1.
                    </_>
                    <_>
                        9 1 2 1 3.
                    </_>
                </rects>
                <tilted>0</tilted>
            </_>
            <_>
                <rects>
                    <_>
                        9 0 2 10 -1.
                    </_>
                    <_>
                        9 5 2 5 2.
                    </_>
                </rects>
                <tilted>0</tilted>
            </_>
            <_>
                <rects>
                    <_>
                        9 0 8 2 -1.
                    </_>
                    <_>
                        9 0 4 1 2.
                    </_>
                    <_>
                        13 1 4 1 2.
                    </_>
                </rects>
                <tilted>0</tilted>
            </_>
            <_>
                <rects>
                    <_>
                        9 5 3 2 -1.
                    </_>
                    <_>
                        10 5 1 2 3.
                    </_>
                </rects>
                <tilted>0</tilted>
            </_>
            <_>
                <rects>
                    <_>
                        9 5 6 1 -1.
                    </_>
                    <_>
                        11 7 2 1 3.
                    </_>
                </rects>
                <tilted>1</tilted>
            </_>
            <_>
                <rects>
                    <_>
                        9 6 2 2 -1.
                    </_>
                    <_>
                        10 6 1 2 2.
                    </_>
                </rects>
                <tilted>0</tilted>
            </_>
            <_>
                <rects>
                    <_>
                        9 9 4 8 -1.
                    </_>
                    <_>
                        9 13 4 4 2.
                    </_>
                </rects>
                <tilted>0</tilted>
            </_>
            <_>
                <rects>
                    <_>
                        10 6 7 4 -1.
                    </_>
                    <_>
                        10 8 7 2 2.
                    </_>
                </rects>
                <tilted>0</tilted>
            </_>
            <_>
                <rects>
                    <_>
                        10 7 3 3 -1.
                    </_>
                    <_>
                        11 8 1 1 9.
                    </_>
                </rects>
                <tilted>0</tilted>
            </_>
            <_>
                <rects>
                    <_>
                        11 0 8 1 -1.
                    </_>
                    <_>
                        15 0 4 1 2.
                    </_>
                </rects>
                <tilted>0</tilted>
            </_>
            <_>
                <rects>
                    <_>
                        11 3 2 3 -1.
                    </_>
                    <_>
                        12 3 1 3 2.
                    </_>
                </rects>
                <tilted>0</tilted>
            </_>
            <_>
                <rects>
                    <_>
                        11 18 3 2 -1.
                    </_>
                    <_>
                        11 19 3 1 2.
                    </_>
                </rects>
                <tilted>0</tilted>
            </_>
            <_>
                <rects>
                    <_>
                        12 0 8 1 -1.
                    </_>
                    <_>
                        14 0 4 1 2.
                    </_>
                </rects>
                <tilted>0</tilted>
            </_>
            <_>
                <rects>
                    <_>
                        12 0 8 20 -1.
                    </_>
                    <_>
                        16 0 4 20 2.
                    </_>
                </rects>
                <tilted>0</tilted>
            </_>
            <_>
                <rects>
                    <_>
                        13 0 6 2 -1.
                    </_>
                    <_>
                        13 0 3 1 2.
                    </_>
                    <_>
                        16 1 3 1 2.
                    </_>
                </rects>
                <tilted>0</tilted>
            </_>
            <_>
                <rects>
                    <_>
                        13 4 1 12 -1.
                    </_>
                    <_>
                        13 4 1 6 2.
                    </_>
                </rects>
                <tilted>1</tilted>
            </_>
            <_>
                <rects>
                    <_>
                        13 4 3 2 -1.
                    </_>
                    <_>
                        13 5 3 1 2.
                    </_>
                </rects>
                <tilted>0</tilted>
            </_>
            <_>
                <rects>
                    <_>
                        13 6 3 4 -1.
                    </_>
                    <_>
                        13 6 3 2 2.
                    </_>
                </rects>
                <tilted>1</tilted>
            </_>
            <_>
                <rects>
                    <_>
                        14 0 4 2 -1.
                    </_>
                    <_>
                        14 0 2 1 2.
                    </_>
                    <_>
                        16 1 2 1 2.
                    </_>
                </rects>
                <tilted>0</tilted>
            </_>
            <_>
                <rects>
                    <_>
                        14 0 6 2 -1.
                    </_>
                    <_>
                        14 0 3 1 2.
                    </_>
                    <_>
                        17 1 3 1 2.
                    </_>
                </rects>
                <tilted>0</tilted>
            </_>
            <_>
                <rects>
                    <_>
                        14 0 4 2 -1.
                    </_>
                    <_>
                        14 1 4 1 2.
                    </_>
                </rects>
                <tilted>0</tilted>
            </_>
            <_>
                <rects>
                    <_>
                        14 1 6 3 -1.
                    </_>
                    <_>
                        14 2 6 1 3.
                    </_>
                </rects>
                <tilted>0</tilted>
            </_>
            <_>
                <rects>
                    <_>
                        14 4 4 12 -1.
                    </_>
                    <_>
                        11 7 4 6 2.
                    </_>
                </rects>
                <tilted>1</tilted>
            </_>
            <_>
                <rects>
                    <_>
                        14 18 5 2 -1.
                    </_>
                    <_>
                        14 19 5 1 2.
                    </_>
                </rects>
                <tilted>0</tilted>
            </_>
            <_>
                <rects>
                    <_>
                        15 0 3 3 -1.
                    </_>
                    <_>
                        16 0 1 3 3.
                    </_>
                </rects>
                <tilted>0</tilted>
            </_>
            <_>
                <rects>
                    <_>
                        15 5 4 1 -1.
                    </_>
                    <_>
                        16 5 2 1 2.
                    </_>
                </rects>
                <tilted>0</tilted>
            </_>
            <_>
                <rects>
                    <_>
                        15 5 2 1 -1.
                    </_>
                    <_>
                        15 5 1 1 2.
                    </_>
                </rects>
                <tilted>1</tilted>
            </_>
            <_>
                <rects>
                    <_>
                        15 8 2 9 -1.
                    </_>
                    <_>
                        16 8 1 9 2.
                    </_>
                </rects>
                <tilted>0</tilted>
            </_>
            <_>
                <rects>
                    <_>
                        16 0 4 1 -1.
                    </_>
                    <_>
                        17 0 2 1 2.
                    </_>
                </rects>
                <tilted>0</tilted>
            </_>
            <_>
                <rects>
                    <_>
                        16 5 2 1 -1.
                    </_>
                    <_>
                        17 5 1 1 2.
                    </_>
                </rects>
                <tilted>0</tilted>
            </_>
            <_>
                <rects>
                    <_>
                        16 11 4 3 -1.
                    </_>
                    <_>
                        16 12 4 1 3.
                    </_>
                </rects>
                <tilted>0</tilted>
            </_>
            <_>
                <rects>
                    <_>
                        17 0 1 3 -1.
                    </_>
                    <_>
                        17 1 1 1 3.
                    </_>
                </rects>
                <tilted>0</tilted>
            </_>
            <_>
                <rects>
                    <_>
                        17 0 2 16 -1.
                    </_>
                    <_>
                        13 4 2 8 2.
                    </_>
                </rects>
                <tilted>1</tilted>
            </_>
            <_>
                <rects>
                    <_>
                        17 7 3 6 -1.
                    </_>
                    <_>
                        18 9 1 2 9.
                    </_>
                </rects>
                <tilted>0</tilted>
            </_>
            <_>
                <rects>
                    <_>
                        18 0 2 6 -1.
                    </_>
                    <_>
                        18 0 1 3 2.
                    </_>
                    <_>
                        19 3 1 3 2.
                    </_>
                </rects>
                <tilted>0</tilted>
            </_>
            <_>
                <rects>
                    <_>
                        18 0 1 16 -1.
                    </_>
                    <_>
                        14 4 1 8 2.
                    </_>
                </rects>
                <tilted>1</tilted>
            </_>
            <_>
                <rects>
                    <_>
                        18 15 2 2 -1.
                    </_>
                    <_>
                        18 15 1 1 2.
                    </_>
                    <_>
                        19 16 1 1 2.
                    </_>
                </rects>
                <tilted>0</tilted>
            </_>
            <_>
                <rects>
                    <_>
                        19 11 1 6 -1.
                    </_>
                    <_>
                        19 13 1 2 3.
                    </_>
                </rects>
                <tilted>0</tilted>
            </_>
            <_>
                <rects>
                    <_>
                        19 11 1 8 -1.
                    </_>
                    <_>
                        19 15 1 4 2.
                    </_>
                </rects>
                <tilted>0</tilted>
            </_>
        </features>
    </cascade>
</opencv_storage>
