<?xml version="1.0"?>
<opencv_storage>
    <cascade>
        <stageType>BOOST</stageType>
        <featureType>HAAR</featureType>
        <height>30</height>
        <width>30</width>
        <stageParams>
            <boostType>GAB</boostType>
            <minHitRate>9.9500000476837158e-01</minHitRate>
            <maxFalseAlarm>5.0000000000000000e-01</maxFalseAlarm>
            <weightTrimRate>9.4999999999999996e-01</weightTrimRate>
            <maxDepth>1</maxDepth>
            <maxWeakCount>100</maxWeakCount>
        </stageParams>
        <featureParams>
            <maxCatCount>0</maxCatCount>
            <featSize>1</featSize>
            <mode>ALL</mode>
        </featureParams>
        <stageNum>20</stageNum>
        <stages>
            <!-- stage 0 -->
            <_>
                <maxWeakCount>4</maxWeakCount>
                <stageThreshold>-1.0302178859710693e+00</stageThreshold>
                <weakClassifiers>
                    <_>
                        <internalNodes>
                            0 -1 208 -1.6259796917438507e-02
                        </internalNodes>
                        <leafValues>
                            6.8020302057266235e-01 -7.7462118864059448e-01
                        </leafValues>
                    </_>
                    <_>
                        <internalNodes>
                            0 -1 123 9.9821779876947403e-03
                        </internalNodes>
                        <leafValues>
                            -5.2361208200454712e-01 6.3184946775436401e-01
                        </leafValues>
                    </_>
                    <_>
                        <internalNodes>
                            0 -1 72 2.0041111856698990e-03
                        </internalNodes>
                        <leafValues>
                            -3.3163079619407654e-01 7.3066091537475586e-01
                        </leafValues>
                    </_>
                    <_>
                        <internalNodes>
                            0 -1 209 -3.4184663090854883e-03
                        </internalNodes>
                        <leafValues>
                            5.9964627027511597e-01 -4.4686764478683472e-01
                        </leafValues>
                    </_>
                </weakClassifiers>
            </_>
            <!-- stage 1 -->
            <_>
                <maxWeakCount>9</maxWeakCount>
                <stageThreshold>-1.5281056165695190e+00</stageThreshold>
                <weakClassifiers>
                    <_>
                        <internalNodes>
                            0 -1 85 -4.1715636849403381e-02
                        </internalNodes>
                        <leafValues>
                            5.7926827669143677e-01 -6.5953654050827026e-01
                        </leafValues>
                    </_>
                    <_>
                        <internalNodes>
                            0 -1 304 1.1184063740074635e-02
                        </internalNodes>
                        <leafValues>
                            -3.9476430416107178e-01 5.7764112949371338e-01
                        </leafValues>
                    </_>
                    <_>
                        <internalNodes>
                            0 -1 150 -2.8232764452695847e-02
                        </internalNodes>
                        <leafValues>
                            7.3004359006881714e-01 -1.8291033804416656e-01
                        </leafValues>
                    </_>
                    <_>
                        <internalNodes>
                            0 -1 79 6.3097374513745308e-03
                        </internalNodes>
                        <leafValues>
                            -1.6846112906932831e-01 7.7522653341293335e-01
                        </leafValues>
                    </_>
                    <_>
                        <internalNodes>
                            0 -1 198 2.7934329118579626e-03
                        </internalNodes>
                        <leafValues>
                            -2.4015133082866669e-01 6.5924018621444702e-01
                        </leafValues>
                    </_>
                    <_>
                        <internalNodes>
                            0 -1 100 -4.5404229313135147e-03
                        </internalNodes>
                        <leafValues>
                            5.4922777414321899e-01 -1.9312556087970734e-01
                        </leafValues>
                    </_>
                    <_>
                        <internalNodes>
                            0 -1 103 1.4795372262597084e-02
                        </internalNodes>
                        <leafValues>
                            -2.5584584474563599e-01 5.3494733572006226e-01
                        </leafValues>
                    </_>
                    <_>
                        <internalNodes>
                            0 -1 27 -1.6749029979109764e-02
                        </internalNodes>
                        <leafValues>
                            4.4413810968399048e-01 -2.9698118567466736e-01
                        </leafValues>
                    </_>
                    <_>
                        <internalNodes>
                            0 -1 226 -1.0719054844230413e-03
                        </internalNodes>
                        <leafValues>
                            3.1115514039993286e-01 -3.7513419985771179e-01
                        </leafValues>
                    </_>
                </weakClassifiers>
            </_>
            <!-- stage 2 -->
            <_>
                <maxWeakCount>10</maxWeakCount>
                <stageThreshold>-1.4219076633453369e+00</stageThreshold>
                <weakClassifiers>
                    <_>
                        <internalNodes>
                            0 -1 197 -1.6099270433187485e-02
                        </internalNodes>
                        <leafValues>
                            4.1011235117912292e-01 -6.3619744777679443e-01
                        </leafValues>
                    </_>
                    <_>
                        <internalNodes>
                            0 -1 136 7.0787854492664337e-03
                        </internalNodes>
                        <leafValues>
                            -3.1329026818275452e-01 6.5407848358154297e-01
                        </leafValues>
                    </_>
                    <_>
                        <internalNodes>
                            0 -1 171 4.7860294580459595e-03
                        </internalNodes>
                        <leafValues>
                            -2.1584425866603851e-01 7.1503084897994995e-01
                        </leafValues>
                    </_>
                    <_>
                        <internalNodes>
                            0 -1 86 -7.6812217012047768e-03
                        </internalNodes>
                        <leafValues>
                            4.9241116642951965e-01 -1.8536144495010376e-01
                        </leafValues>
                    </_>
                    <_>
                        <internalNodes>
                            0 -1 113 1.4370204880833626e-02
                        </internalNodes>
                        <leafValues>
                            -1.9898447394371033e-01 5.7666879892349243e-01
                        </leafValues>
                    </_>
                    <_>
                        <internalNodes>
                            0 -1 301 7.1066119708120823e-03
                        </internalNodes>
                        <leafValues>
                            -2.9341545701026917e-01 3.8802763819694519e-01
                        </leafValues>
                    </_>
                    <_>
                        <internalNodes>
                            0 -1 260 -6.1382347485050559e-04
                        </internalNodes>
                        <leafValues>
                            6.4685797691345215e-01 -1.7912949621677399e-01
                        </leafValues>
                    </_>
                    <_>
                        <internalNodes>
                            0 -1 259 2.5046542286872864e-03
                        </internalNodes>
                        <leafValues>
                            -1.6885843873023987e-01 5.8080935478210449e-01
                        </leafValues>
                    </_>
                    <_>
                        <internalNodes>
                            0 -1 315 4.8906222218647599e-04
                        </internalNodes>
                        <leafValues>
                            2.4457183480262756e-01 -4.9244260787963867e-01
                        </leafValues>
                    </_>
                    <_>
                        <internalNodes>
                            0 -1 191 5.2422778680920601e-03
                        </internalNodes>
                        <leafValues>
                            -2.5105148553848267e-01 5.0059193372726440e-01
                        </leafValues>
                    </_>
                </weakClassifiers>
            </_>
            <!-- stage 3 -->
            <_>
                <maxWeakCount>13</maxWeakCount>
                <stageThreshold>-1.5493553876876831e+00</stageThreshold>
                <weakClassifiers>
                    <_>
                        <internalNodes>
                            0 -1 164 1.2738930061459541e-02
                        </internalNodes>
                        <leafValues>
                            -5.8730161190032959e-01 6.0474306344985962e-01
                        </leafValues>
                    </_>
                    <_>
                        <internalNodes>
                            0 -1 284 -5.0393203273415565e-03
                        </internalNodes>
                        <leafValues>
                            4.3311300873756409e-01 -3.3831107616424561e-01
                        </leafValues>
                    </_>
                    <_>
                        <internalNodes>
                            0 -1 114 1.3643315061926842e-02
                        </internalNodes>
                        <leafValues>
                            -2.8032535314559937e-01 3.9242827892303467e-01
                        </leafValues>
                    </_>
                    <_>
                        <internalNodes>
                            0 -1 148 -6.5575796179473400e-03
                        </internalNodes>
                        <leafValues>
                            4.5497390627861023e-01 -2.6527401804924011e-01
                        </leafValues>
                    </_>
                    <_>
                        <internalNodes>
                            0 -1 126 -8.6451787501573563e-03
                        </internalNodes>
                        <leafValues>
                            6.7804151773452759e-01 -1.2648271024227142e-01
                        </leafValues>
                    </_>
                    <_>
                        <internalNodes>
                            0 -1 32 -3.5018348135054111e-03
                        </internalNodes>
                        <leafValues>
                            3.5879066586494446e-01 -2.7447491884231567e-01
                        </leafValues>
                    </_>
                    <_>
                        <internalNodes>
                            0 -1 35 1.0594356805086136e-02
                        </internalNodes>
                        <leafValues>
                            -1.6072852909564972e-01 6.8027317523956299e-01
                        </leafValues>
                    </_>
                    <_>
                        <internalNodes>
                            0 -1 297 2.6998179964721203e-04
                        </internalNodes>
                        <leafValues>
                            2.3061865568161011e-01 -6.0612779855728149e-01
                        </leafValues>
                    </_>
                    <_>
                        <internalNodes>
                            0 -1 201 2.2553962189704180e-03
                        </internalNodes>
                        <leafValues>
                            -2.1333262324333191e-01 5.7511341571807861e-01
                        </leafValues>
                    </_>
                    <_>
                        <internalNodes>
                            0 -1 272 5.9339811559766531e-04
                        </internalNodes>
                        <leafValues>
                            -1.7161586880683899e-01 5.4070442914962769e-01
                        </leafValues>
                    </_>
                    <_>
                        <internalNodes>
                            0 -1 314 -9.3477938207797706e-05
                        </internalNodes>
                        <leafValues>
                            -4.2368805408477783e-01 2.4521557986736298e-01
                        </leafValues>
                    </_>
                    <_>
                        <internalNodes>
                            0 -1 251 1.8524244427680969e-02
                        </internalNodes>
                        <leafValues>
                            -2.2476752102375031e-01 6.4248394966125488e-01
                        </leafValues>
                    </_>
                    <_>
                        <internalNodes>
                            0 -1 273 1.2158395256847143e-03
                        </internalNodes>
                        <leafValues>
                            -1.2660187482833862e-01 6.5306258201599121e-01
                        </leafValues>
                    </_>
                </weakClassifiers>
            </_>
            <!-- stage 4 -->
            <_>
                <maxWeakCount>14</maxWeakCount>
                <stageThreshold>-1.3949688673019409e+00</stageThreshold>
                <weakClassifiers>
                    <_>
                        <internalNodes>
                            0 -1 151 -1.1520281434059143e-02
                        </internalNodes>
                        <leafValues>
                            5.1037347316741943e-01 -5.5665838718414307e-01
                        </leafValues>
                    </_>
                    <_>
                        <internalNodes>
                            0 -1 243 1.0194331407546997e-02
                        </internalNodes>
                        <leafValues>
                            -2.8783184289932251e-01 5.3205895423889160e-01
                        </leafValues>
                    </_>
                    <_>
                        <internalNodes>
                            0 -1 60 -6.1588641256093979e-03
                        </internalNodes>
                        <leafValues>
                            7.5513660907745361e-01 -1.8851773440837860e-01
                        </leafValues>
                    </_>
                    <_>
                        <internalNodes>
                            0 -1 262 1.1838840146083385e-04
                        </internalNodes>
                        <leafValues>
                            2.7515611052513123e-01 -4.2315590381622314e-01
                        </leafValues>
                    </_>
                    <_>
                        <internalNodes>
                            0 -1 263 -1.5759943926241249e-04
                        </internalNodes>
                        <leafValues>
                            -4.9351316690444946e-01 2.0843672752380371e-01
                        </leafValues>
                    </_>
                    <_>
                        <internalNodes>
                            0 -1 141 1.6385898925364017e-03
                        </internalNodes>
                        <leafValues>
                            -2.3522214591503143e-01 4.8360577225685120e-01
                        </leafValues>
                    </_>
                    <_>
                        <internalNodes>
                            0 -1 274 -7.3586092330515385e-03
                        </internalNodes>
                        <leafValues>
                            6.3609606027603149e-01 -1.1591181159019470e-01
                        </leafValues>
                    </_>
                    <_>
                        <internalNodes>
                            0 -1 116 2.4504614993929863e-03
                        </internalNodes>
                        <leafValues>
                            -2.0119455456733704e-01 4.4681677222251892e-01
                        </leafValues>
                    </_>
                    <_>
                        <internalNodes>
                            0 -1 14 1.9102539226878434e-04
                        </internalNodes>
                        <leafValues>
                            1.8137690424919128e-01 -5.8534049987792969e-01
                        </leafValues>
                    </_>
                    <_>
                        <internalNodes>
                            0 -1 9 -5.3822174668312073e-03
                        </internalNodes>
                        <leafValues>
                            4.2130681872367859e-01 -2.3162730038166046e-01
                        </leafValues>
                    </_>
                    <_>
                        <internalNodes>
                            0 -1 156 -2.4553691036999226e-03
                        </internalNodes>
                        <leafValues>
                            6.0475116968154907e-01 -1.7592932283878326e-01
                        </leafValues>
                    </_>
                    <_>
                        <internalNodes>
                            0 -1 174 1.6459112521260977e-03
                        </internalNodes>
                        <leafValues>
                            -1.6335187852382660e-01 4.6199718117713928e-01
                        </leafValues>
                    </_>
                    <_>
                        <internalNodes>
                            0 -1 313 2.0943051204085350e-03
                        </internalNodes>
                        <leafValues>
                            -2.6080551743507385e-01 3.3322802186012268e-01
                        </leafValues>
                    </_>
                    <_>
                        <internalNodes>
                            0 -1 237 6.6671026870608330e-03
                        </internalNodes>
                        <leafValues>
                            -1.6032081842422485e-01 6.1234974861145020e-01
                        </leafValues>
                    </_>
                </weakClassifiers>
            </_>
            <!-- stage 5 -->
            <_>
                <maxWeakCount>14</maxWeakCount>
                <stageThreshold>-1.5626262426376343e+00</stageThreshold>
                <weakClassifiers>
                    <_>
                        <internalNodes>
                            0 -1 59 -2.6764743030071259e-02
                        </internalNodes>
                        <leafValues>
                            7.2903227806091309e-01 -5.1196908950805664e-01
                        </leafValues>
                    </_>
                    <_>
                        <internalNodes>
                            0 -1 177 -5.1166824996471405e-02
                        </internalNodes>
                        <leafValues>
                            3.8979259133338928e-01 -3.7018665671348572e-01
                        </leafValues>
                    </_>
                    <_>
                        <internalNodes>
                            0 -1 233 2.6986171724274755e-04
                        </internalNodes>
                        <leafValues>
                            2.0594768226146698e-01 -4.3257886171340942e-01
                        </leafValues>
                    </_>
                    <_>
                        <internalNodes>
                            0 -1 16 -7.2373999282717705e-03
                        </internalNodes>
                        <leafValues>
                            3.0251446366310120e-01 -3.1121799349784851e-01
                        </leafValues>
                    </_>
                    <_>
                        <internalNodes>
                            0 -1 163 -1.1286634951829910e-02
                        </internalNodes>
                        <leafValues>
                            5.3606116771697998e-01 -1.7396888136863708e-01
                        </leafValues>
                    </_>
                    <_>
                        <internalNodes>
                            0 -1 109 3.0494639649987221e-03
                        </internalNodes>
                        <leafValues>
                            -2.0472417771816254e-01 5.0009495019912720e-01
                        </leafValues>
                    </_>
                    <_>
                        <internalNodes>
                            0 -1 264 -1.4820149168372154e-02
                        </internalNodes>
                        <leafValues>
                            5.4453796148300171e-01 -1.3550689816474915e-01
                        </leafValues>
                    </_>
                    <_>
                        <internalNodes>
                            0 -1 234 1.8110018223524094e-02
                        </internalNodes>
                        <leafValues>
                            -2.7990838885307312e-01 3.1692495942115784e-01
                        </leafValues>
                    </_>
                    <_>
                        <internalNodes>
                            0 -1 4 1.9071635324507952e-04
                        </internalNodes>
                        <leafValues>
                            1.4442327618598938e-01 -6.0353559255599976e-01
                        </leafValues>
                    </_>
                    <_>
                        <internalNodes>
                            0 -1 54 9.7680639009922743e-04
                        </internalNodes>
                        <leafValues>
                            -2.3782071471214294e-01 3.9009085297584534e-01
                        </leafValues>
                    </_>
                    <_>
                        <internalNodes>
                            0 -1 110 4.2090530041605234e-04
                        </internalNodes>
                        <leafValues>
                            1.2269339710474014e-01 -6.1696898937225342e-01
                        </leafValues>
                    </_>
                    <_>
                        <internalNodes>
                            0 -1 248 9.4239797908812761e-04
                        </internalNodes>
                        <leafValues>
                            -2.0223885774612427e-01 3.7597814202308655e-01
                        </leafValues>
                    </_>
                    <_>
                        <internalNodes>
                            0 -1 169 4.8138648271560669e-03
                        </internalNodes>
                        <leafValues>
                            1.3274678587913513e-01 -6.2934833765029907e-01
                        </leafValues>
                    </_>
                    <_>
                        <internalNodes>
                            0 -1 250 -8.3997147157788277e-05
                        </internalNodes>
                        <leafValues>
                            -4.5092576742172241e-01 1.5417158603668213e-01
                        </leafValues>
                    </_>
                </weakClassifiers>
            </_>
            <!-- stage 6 -->
            <_>
                <maxWeakCount>15</maxWeakCount>
                <stageThreshold>-1.3958324193954468e+00</stageThreshold>
                <weakClassifiers>
                    <_>
                        <internalNodes>
                            0 -1 7 -1.6287412494421005e-02
                        </internalNodes>
                        <leafValues>
                            3.4640523791313171e-01 -5.7342654466629028e-01
                        </leafValues>
                    </_>
                    <_>
                        <internalNodes>
                            0 -1 232 2.2335369139909744e-03
                        </internalNodes>
                        <leafValues>
                            -2.7103033661842346e-01 4.7004288434982300e-01
                        </leafValues>
                    </_>
                    <_>
                        <internalNodes>
                            0 -1 62 -6.6059920936822891e-04
                        </internalNodes>
                        <leafValues>
                            -4.7328752279281616e-01 1.8332982063293457e-01
                        </leafValues>
                    </_>
                    <_>
                        <internalNodes>
                            0 -1 192 3.4686727449297905e-03
                        </internalNodes>
                        <leafValues>
                            -3.2226237654685974e-01 2.6321852207183838e-01
                        </leafValues>
                    </_>
                    <_>
                        <internalNodes>
                            0 -1 311 -1.7518259119242430e-04
                        </internalNodes>
                        <leafValues>
                            -4.8728325963020325e-01 1.8205787241458893e-01
                        </leafValues>
                    </_>
                    <_>
                        <internalNodes>
                            0 -1 186 2.3215943947434425e-03
                        </internalNodes>
                        <leafValues>
                            -1.9054549932479858e-01 4.6836543083190918e-01
                        </leafValues>
                    </_>
                    <_>
                        <internalNodes>
                            0 -1 172 -5.0873649306595325e-03
                        </internalNodes>
                        <leafValues>
                            6.3762223720550537e-01 -1.0556004196405411e-01
                        </leafValues>
                    </_>
                    <_>
                        <internalNodes>
                            0 -1 48 1.0283946990966797e-02
                        </internalNodes>
                        <leafValues>
                            -1.4224636554718018e-01 5.6276088953018188e-01
                        </leafValues>
                    </_>
                    <_>
                        <internalNodes>
                            0 -1 292 -1.7084397841244936e-03
                        </internalNodes>
                        <leafValues>
                            4.2716154456138611e-01 -1.7780627310276031e-01
                        </leafValues>
                    </_>
                    <_>
                        <internalNodes>
                            0 -1 87 7.1096245665103197e-04
                        </internalNodes>
                        <leafValues>
                            1.1322404444217682e-01 -6.5640765428543091e-01
                        </leafValues>
                    </_>
                    <_>
                        <internalNodes>
                            0 -1 70 -8.0078747123479843e-03
                        </internalNodes>
                        <leafValues>
                            4.0296727418899536e-01 -1.9212017953395844e-01
                        </leafValues>
                    </_>
                    <_>
                        <internalNodes>
                            0 -1 268 -2.8748909244313836e-05
                        </internalNodes>
                        <leafValues>
                            3.1598010659217834e-01 -2.3996110260486603e-01
                        </leafValues>
                    </_>
                    <_>
                        <internalNodes>
                            0 -1 293 2.8817835263907909e-03
                        </internalNodes>
                        <leafValues>
                            -1.4532873034477234e-01 4.7678986191749573e-01
                        </leafValues>
                    </_>
                    <_>
                        <internalNodes>
                            0 -1 189 -2.0642173476517200e-03
                        </internalNodes>
                        <leafValues>
                            3.9067482948303223e-01 -1.8234615027904510e-01
                        </leafValues>
                    </_>
                    <_>
                        <internalNodes>
                            0 -1 230 -2.9100799001753330e-03
                        </internalNodes>
                        <leafValues>
                            -8.1746804714202881e-01 8.2708545029163361e-02
                        </leafValues>
                    </_>
                </weakClassifiers>
            </_>
            <!-- stage 7 -->
            <_>
                <maxWeakCount>16</maxWeakCount>
                <stageThreshold>-1.3143622875213623e+00</stageThreshold>
                <weakClassifiers>
                    <_>
                        <internalNodes>
                            0 -1 96 -2.4568736553192139e-02
                        </internalNodes>
                        <leafValues>
                            1.0317460447549820e-01 -6.3636362552642822e-01
                        </leafValues>
                    </_>
                    <_>
                        <internalNodes>
                            0 -1 58 -3.2171860337257385e-02
                        </internalNodes>
                        <leafValues>
                            4.9578082561492920e-01 -2.5695773959159851e-01
                        </leafValues>
                    </_>
                    <_>
                        <internalNodes>
                            0 -1 250 1.0556964843999594e-04
                        </internalNodes>
                        <leafValues>
                            2.0385707914829254e-01 -4.3392962217330933e-01
                        </leafValues>
                    </_>
                    <_>
                        <internalNodes>
                            0 -1 221 2.6098396629095078e-03
                        </internalNodes>
                        <leafValues>
                            -1.6255886852741241e-01 5.6086087226867676e-01
                        </leafValues>
                    </_>
                    <_>
                        <internalNodes>
                            0 -1 108 1.2797620147466660e-03
                        </internalNodes>
                        <leafValues>
                            -1.6567619144916534e-01 4.0732970833778381e-01
                        </leafValues>
                    </_>
                    <_>
                        <internalNodes>
                            0 -1 245 -1.7706451471894979e-03
                        </internalNodes>
                        <leafValues>
                            4.3001523613929749e-01 -1.5542969107627869e-01
                        </leafValues>
                    </_>
                    <_>
                        <internalNodes>
                            0 -1 49 3.4994058310985565e-02
                        </internalNodes>
                        <leafValues>
                            -1.2319728732109070e-01 7.0035696029663086e-01
                        </leafValues>
                    </_>
                    <_>
                        <internalNodes>
                            0 -1 216 -2.1959766745567322e-02
                        </internalNodes>
                        <leafValues>
                            3.7309744954109192e-01 -2.3220747709274292e-01
                        </leafValues>
                    </_>
                    <_>
                        <internalNodes>
                            0 -1 36 -4.3147899210453033e-02
                        </internalNodes>
                        <leafValues>
                            4.2545977234840393e-01 -1.7078939080238342e-01
                        </leafValues>
                    </_>
                    <_>
                        <internalNodes>
                            0 -1 217 5.4869540035724640e-03
                        </internalNodes>
                        <leafValues>
                            -1.0703059285879135e-01 5.5739730596542358e-01
                        </leafValues>
                    </_>
                    <_>
                        <internalNodes>
                            0 -1 227 6.3018247601576149e-05
                        </internalNodes>
                        <leafValues>
                            -2.6545459032058716e-01 2.7406328916549683e-01
                        </leafValues>
                    </_>
                    <_>
                        <internalNodes>
                            0 -1 139 -9.6519244834780693e-04
                        </internalNodes>
                        <leafValues>
                            2.8659981489181519e-01 -2.6812344789505005e-01
                        </leafValues>
                    </_>
                    <_>
                        <internalNodes>
                            0 -1 153 8.6955716833472252e-03
                        </internalNodes>
                        <leafValues>
                            -1.2295635044574738e-01 6.2859493494033813e-01
                        </leafValues>
                    </_>
                    <_>
                        <internalNodes>
                            0 -1 1 -7.7678168963757344e-06
                        </internalNodes>
                        <leafValues>
                            -4.7143673896789551e-01 1.6186279058456421e-01
                        </leafValues>
                    </_>
                    <_>
                        <internalNodes>
                            0 -1 104 -2.1430946886539459e-02
                        </internalNodes>
                        <leafValues>
                            -5.6847006082534790e-01 1.1878687143325806e-01
                        </leafValues>
                    </_>
                    <_>
                        <internalNodes>
                            0 -1 82 -1.1308304965496063e-02
                        </internalNodes>
                        <leafValues>
                            4.0564936399459839e-01 -1.7402316629886627e-01
                        </leafValues>
                    </_>
                </weakClassifiers>
            </_>
            <!-- stage 8 -->
            <_>
                <maxWeakCount>17</maxWeakCount>
                <stageThreshold>-1.3148493766784668e+00</stageThreshold>
                <weakClassifiers>
                    <_>
                        <internalNodes>
                            0 -1 149 -7.5718648731708527e-03
                        </internalNodes>
                        <leafValues>
                            2.0364741981029510e-01 -5.5040144920349121e-01
                        </leafValues>
                    </_>
                    <_>
                        <internalNodes>
                            0 -1 207 -3.7687188014388084e-03
                        </internalNodes>
                        <leafValues>
                            3.4152823686599731e-01 -3.2843881845474243e-01
                        </leafValues>
                    </_>
                    <_>
                        <internalNodes>
                            0 -1 89 1.5348039567470551e-02
                        </internalNodes>
                        <leafValues>
                            -2.2866086661815643e-01 3.6873248219490051e-01
                        </leafValues>
                    </_>
                    <_>
                        <internalNodes>
                            0 -1 280 6.4067011699080467e-03
                        </internalNodes>
                        <leafValues>
                            -8.6912840604782104e-02 8.3660078048706055e-01
                        </leafValues>
                    </_>
                    <_>
                        <internalNodes>
                            0 -1 76 -3.0901845544576645e-02
                        </internalNodes>
                        <leafValues>
                            -4.6108293533325195e-01 1.8346673250198364e-01
                        </leafValues>
                    </_>
                    <_>
                        <internalNodes>
                            0 -1 179 2.4270756170153618e-02
                        </internalNodes>
                        <leafValues>
                            1.7642463743686676e-01 -7.2042638063430786e-01
                        </leafValues>
                    </_>
                    <_>
                        <internalNodes>
                            0 -1 11 -5.6057199835777283e-02
                        </internalNodes>
                        <leafValues>
                            -5.9245681762695312e-01 1.1604588478803635e-01
                        </leafValues>
                    </_>
                    <_>
                        <internalNodes>
                            0 -1 278 -3.4409593790769577e-03
                        </internalNodes>
                        <leafValues>
                            4.7395238280296326e-01 -1.7215424776077271e-01
                        </leafValues>
                    </_>
                    <_>
                        <internalNodes>
                            0 -1 269 8.0565884709358215e-03
                        </internalNodes>
                        <leafValues>
                            -2.1389800310134888e-01 3.9346170425415039e-01
                        </leafValues>
                    </_>
                    <_>
                        <internalNodes>
                            0 -1 2 1.3396947178989649e-04
                        </internalNodes>
                        <leafValues>
                            1.9628709554672241e-01 -4.0553027391433716e-01
                        </leafValues>
                    </_>
                    <_>
                        <internalNodes>
                            0 -1 90 -2.9092404292896390e-04
                        </internalNodes>
                        <leafValues>
                            3.6342957615852356e-01 -2.0294642448425293e-01
                        </leafValues>
                    </_>
                    <_>
                        <internalNodes>
                            0 -1 256 1.1711293831467628e-02
                        </internalNodes>
                        <leafValues>
                            1.4295838773250580e-01 -6.0017520189285278e-01
                        </leafValues>
                    </_>
                    <_>
                        <internalNodes>
                            0 -1 71 1.6051991842687130e-03
                        </internalNodes>
                        <leafValues>
                            -2.1624149382114410e-01 3.3282133936882019e-01
                        </leafValues>
                    </_>
                    <_>
                        <internalNodes>
                            0 -1 283 4.6711908653378487e-03
                        </internalNodes>
                        <leafValues>
                            -1.3333955407142639e-01 5.1172983646392822e-01
                        </leafValues>
                    </_>
                    <_>
                        <internalNodes>
                            0 -1 287 -1.5019033526186831e-05
                        </internalNodes>
                        <leafValues>
                            2.5453966856002808e-01 -3.1851917505264282e-01
                        </leafValues>
                    </_>
                    <_>
                        <internalNodes>
                            0 -1 277 1.1001758684869856e-04
                        </internalNodes>
                        <leafValues>
                            -2.6375505328178406e-01 2.5383985042572021e-01
                        </leafValues>
                    </_>
                    <_>
                        <internalNodes>
                            0 -1 25 1.2205572420498356e-04
                        </internalNodes>
                        <leafValues>
                            1.4795084297657013e-01 -5.2182775735855103e-01
                        </leafValues>
                    </_>
                </weakClassifiers>
            </_>
            <!-- stage 9 -->
            <_>
                <maxWeakCount>15</maxWeakCount>
                <stageThreshold>-1.2690175771713257e+00</stageThreshold>
                <weakClassifiers>
                    <_>
                        <internalNodes>
                            0 -1 33 -5.0131529569625854e-03
                        </internalNodes>
                        <leafValues>
                            8.0459773540496826e-02 -6.3793104887008667e-01
                        </leafValues>
                    </_>
                    <_>
                        <internalNodes>
                            0 -1 298 1.6364272596547380e-05
                        </internalNodes>
                        <leafValues>
                            1.6863773763179779e-01 -5.0102877616882324e-01
                        </leafValues>
                    </_>
                    <_>
                        <internalNodes>
                            0 -1 258 4.1797207668423653e-03
                        </internalNodes>
                        <leafValues>
                            -1.7290145158767700e-01 5.6852930784225464e-01
                        </leafValues>
                    </_>
                    <_>
                        <internalNodes>
                            0 -1 200 -2.7912855148315430e-03
                        </internalNodes>
                        <leafValues>
                            4.5840021967887878e-01 -1.9840037822723389e-01
                        </leafValues>
                    </_>
                    <_>
                        <internalNodes>
                            0 -1 24 -5.7836998254060745e-02
                        </internalNodes>
                        <leafValues>
                            -5.3320550918579102e-01 1.5575826168060303e-01
                        </leafValues>
                    </_>
                    <_>
                        <internalNodes>
                            0 -1 316 -1.0895504237851128e-04
                        </internalNodes>
                        <leafValues>
                            -6.5567338466644287e-01 1.1917643994092941e-01
                        </leafValues>
                    </_>
                    <_>
                        <internalNodes>
                            0 -1 173 1.0305227711796761e-02
                        </internalNodes>
                        <leafValues>
                            -1.0449776053428650e-01 7.3936653137207031e-01
                        </leafValues>
                    </_>
                    <_>
                        <internalNodes>
                            0 -1 270 6.3561145216226578e-03
                        </internalNodes>
                        <leafValues>
                            -1.5802417695522308e-01 4.6522861719131470e-01
                        </leafValues>
                    </_>
                    <_>
                        <internalNodes>
                            0 -1 180 -1.0280878283083439e-02
                        </internalNodes>
                        <leafValues>
                            -7.0170122385025024e-01 1.3052585721015930e-01
                        </leafValues>
                    </_>
                    <_>
                        <internalNodes>
                            0 -1 266 5.4991602897644043e-02
                        </internalNodes>
                        <leafValues>
                            7.7985867857933044e-02 -7.8390914201736450e-01
                        </leafValues>
                    </_>
                    <_>
                        <internalNodes>
                            0 -1 286 2.6503186672925949e-03
                        </internalNodes>
                        <leafValues>
                            -2.3015560209751129e-01 3.7894973158836365e-01
                        </leafValues>
                    </_>
                    <_>
                        <internalNodes>
                            0 -1 101 2.2247559390962124e-03
                        </internalNodes>
                        <leafValues>
                            -2.0858860015869141e-01 4.1769877076148987e-01
                        </leafValues>
                    </_>
                    <_>
                        <internalNodes>
                            0 -1 252 1.2249906547367573e-02
                        </internalNodes>
                        <leafValues>
                            -9.1317981481552124e-02 6.3640546798706055e-01
                        </leafValues>
                    </_>
                    <_>
                        <internalNodes>
                            0 -1 45 1.5124937635846436e-04
                        </internalNodes>
                        <leafValues>
                            1.5580181777477264e-01 -4.6936970949172974e-01
                        </leafValues>
                    </_>
                    <_>
                        <internalNodes>
                            0 -1 122 5.6800721213221550e-03
                        </internalNodes>
                        <leafValues>
                            -2.0937561988830566e-01 3.8811472058296204e-01
                        </leafValues>
                    </_>
                </weakClassifiers>
            </_>
            <!-- stage 10 -->
            <_>
                <maxWeakCount>20</maxWeakCount>
                <stageThreshold>-1.4728533029556274e+00</stageThreshold>
                <weakClassifiers>
                    <_>
                        <internalNodes>
                            0 -1 43 3.8066902197897434e-03
                        </internalNodes>
                        <leafValues>
                            -5.3050845861434937e-01 2.8148147463798523e-01
                        </leafValues>
                    </_>
                    <_>
                        <internalNodes>
                            0 -1 275 1.0153897106647491e-02
                        </internalNodes>
                        <leafValues>
                            -2.4146659672260284e-01 3.6150687932968140e-01
                        </leafValues>
                    </_>
                    <_>
                        <internalNodes>
                            0 -1 44 -6.7892954684793949e-03
                        </internalNodes>
                        <leafValues>
                            6.0720556974411011e-01 -1.3408307731151581e-01
                        </leafValues>
                    </_>
                    <_>
                        <internalNodes>
                            0 -1 294 -1.6616118955425918e-04
                        </internalNodes>
                        <leafValues>
                            -5.3032433986663818e-01 1.6220611333847046e-01
                        </leafValues>
                    </_>
                    <_>
                        <internalNodes>
                            0 -1 212 -1.6431077383458614e-03
                        </internalNodes>
                        <leafValues>
                            3.2173514366149902e-01 -2.6148459315299988e-01
                        </leafValues>
                    </_>
                    <_>
                        <internalNodes>
                            0 -1 130 -3.0448879115283489e-03
                        </internalNodes>
                        <leafValues>
                            2.7222475409507751e-01 -2.5139218568801880e-01
                        </leafValues>
                    </_>
                    <_>
                        <internalNodes>
                            0 -1 75 8.1696885172277689e-04
                        </internalNodes>
                        <leafValues>
                            -1.6195145249366760e-01 4.8091819882392883e-01
                        </leafValues>
                    </_>
                    <_>
                        <internalNodes>
                            0 -1 196 7.9487523180432618e-05
                        </internalNodes>
                        <leafValues>
                            -2.3599402606487274e-01 2.8406053781509399e-01
                        </leafValues>
                    </_>
                    <_>
                        <internalNodes>
                            0 -1 66 -2.8827314963564277e-04
                        </internalNodes>
                        <leafValues>
                            -4.8273196816444397e-01 1.5479817986488342e-01
                        </leafValues>
                    </_>
                    <_>
                        <internalNodes>
                            0 -1 133 -1.9303902809042484e-04
                        </internalNodes>
                        <leafValues>
                            3.7768068909645081e-01 -1.9593773782253265e-01
                        </leafValues>
                    </_>
                    <_>
                        <internalNodes>
                            0 -1 199 6.4675835892558098e-03
                        </internalNodes>
                        <leafValues>
                            1.1754830181598663e-01 -6.1287629604339600e-01
                        </leafValues>
                    </_>
                    <_>
                        <internalNodes>
                            0 -1 229 2.5361295789480209e-02
                        </internalNodes>
                        <leafValues>
                            -1.5306469798088074e-01 4.9224469065666199e-01
                        </leafValues>
                    </_>
                    <_>
                        <internalNodes>
                            0 -1 99 6.1111722607165575e-04
                        </internalNodes>
                        <leafValues>
                            -1.9851212203502655e-01 3.8122320175170898e-01
                        </leafValues>
                    </_>
                    <_>
                        <internalNodes>
                            0 -1 95 4.2664376087486744e-04
                        </internalNodes>
                        <leafValues>
                            9.2087924480438232e-02 -6.8568783998489380e-01
                        </leafValues>
                    </_>
                    <_>
                        <internalNodes>
                            0 -1 249 -9.5830485224723816e-03
                        </internalNodes>
                        <leafValues>
                            4.7155392169952393e-01 -1.7171815037727356e-01
                        </leafValues>
                    </_>
                    <_>
                        <internalNodes>
                            0 -1 176 4.4114456977695227e-04
                        </internalNodes>
                        <leafValues>
                            -1.6232588887214661e-01 3.8152623176574707e-01
                        </leafValues>
                    </_>
                    <_>
                        <internalNodes>
                            0 -1 117 1.6260063275694847e-02
                        </internalNodes>
                        <leafValues>
                            -1.0322550684213638e-01 5.4677575826644897e-01
                        </leafValues>
                    </_>
                    <_>
                        <internalNodes>
                            0 -1 118 -1.2916872510686517e-03
                        </internalNodes>
                        <leafValues>
                            4.1844138503074646e-01 -1.6061842441558838e-01
                        </leafValues>
                    </_>
                    <_>
                        <internalNodes>
                            0 -1 193 8.0289086326956749e-03
                        </internalNodes>
                        <leafValues>
                            9.8666869103908539e-02 -7.7483129501342773e-01
                        </leafValues>
                    </_>
                    <_>
                        <internalNodes>
                            0 -1 190 -6.0620228759944439e-04
                        </internalNodes>
                        <leafValues>
                            2.9050377011299133e-01 -2.2259131073951721e-01
                        </leafValues>
                    </_>
                </weakClassifiers>
            </_>
            <!-- stage 11 -->
            <_>
                <maxWeakCount>19</maxWeakCount>
                <stageThreshold>-1.4541239738464355e+00</stageThreshold>
                <weakClassifiers>
                    <_>
                        <internalNodes>
                            0 -1 231 1.1556195095181465e-02
                        </internalNodes>
                        <leafValues>
                            -5.4822337627410889e-01 3.6567163467407227e-01
                        </leafValues>
                    </_>
                    <_>
                        <internalNodes>
                            0 -1 203 -1.6694104997441173e-03
                        </internalNodes>
                        <leafValues>
                            3.0037319660186768e-01 -2.9765430092811584e-01
                        </leafValues>
                    </_>
                    <_>
                        <internalNodes>
                            0 -1 162 -1.6726339235901833e-02
                        </internalNodes>
                        <leafValues>
                            5.7905471324920654e-01 -1.5497516095638275e-01
                        </leafValues>
                    </_>
                    <_>
                        <internalNodes>
                            0 -1 57 -2.4768091738224030e-02
                        </internalNodes>
                        <leafValues>
                            6.9294166564941406e-01 -1.0872238129377365e-01
                        </leafValues>
                    </_>
                    <_>
                        <internalNodes>
                            0 -1 137 -7.3786708526313305e-05
                        </internalNodes>
                        <leafValues>
                            -4.6964052319526672e-01 1.3960850238800049e-01
                        </leafValues>
                    </_>
                    <_>
                        <internalNodes>
                            0 -1 188 1.5327881556004286e-03
                        </internalNodes>
                        <leafValues>
                            -9.0992674231529236e-02 6.0079383850097656e-01
                        </leafValues>
                    </_>
                    <_>
                        <internalNodes>
                            0 -1 215 1.1438309447839856e-03
                        </internalNodes>
                        <leafValues>
                            -1.9611658155918121e-01 3.4406077861785889e-01
                        </leafValues>
                    </_>
                    <_>
                        <internalNodes>
                            0 -1 246 -6.5946264658123255e-04
                        </internalNodes>
                        <leafValues>
                            2.9458069801330566e-01 -2.2993510961532593e-01
                        </leafValues>
                    </_>
                    <_>
                        <internalNodes>
                            0 -1 178 1.6981851076707244e-03
                        </internalNodes>
                        <leafValues>
                            -2.6162421703338623e-01 2.5052657723426819e-01
                        </leafValues>
                    </_>
                    <_>
                        <internalNodes>
                            0 -1 155 3.0014645308256149e-02
                        </internalNodes>
                        <leafValues>
                            9.9751554429531097e-02 -7.3637104034423828e-01
                        </leafValues>
                    </_>
                    <_>
                        <internalNodes>
                            0 -1 30 -1.7397081851959229e-01
                        </internalNodes>
                        <leafValues>
                            -6.2061059474945068e-01 1.0833260416984558e-01
                        </leafValues>
                    </_>
                    <_>
                        <internalNodes>
                            0 -1 307 4.7596025979146361e-04
                        </internalNodes>
                        <leafValues>
                            9.1821014881134033e-02 -6.2421566247940063e-01
                        </leafValues>
                    </_>
                    <_>
                        <internalNodes>
                            0 -1 247 -7.8008946729823947e-05
                        </internalNodes>
                        <leafValues>
                            2.6333582401275635e-01 -2.6033222675323486e-01
                        </leafValues>
                    </_>
                    <_>
                        <internalNodes>
                            0 -1 236 -1.3898992910981178e-03
                        </internalNodes>
                        <leafValues>
                            3.0204626917839050e-01 -2.0165288448333740e-01
                        </leafValues>
                    </_>
                    <_>
                        <internalNodes>
                            0 -1 51 9.5469653606414795e-03
                        </internalNodes>
                        <leafValues>
                            -9.6228592097759247e-02 6.8739509582519531e-01
                        </leafValues>
                    </_>
                    <_>
                        <internalNodes>
                            0 -1 23 1.4247588114812970e-04
                        </internalNodes>
                        <leafValues>
                            -2.4935907125473022e-01 3.0694881081581116e-01
                        </leafValues>
                    </_>
                    <_>
                        <internalNodes>
                            0 -1 15 -6.9492345210164785e-04
                        </internalNodes>
                        <leafValues>
                            -4.6432575583457947e-01 1.4424358308315277e-01
                        </leafValues>
                    </_>
                    <_>
                        <internalNodes>
                            0 -1 214 3.3051876816898584e-03
                        </internalNodes>
                        <leafValues>
                            8.9981585741043091e-02 -6.4529377222061157e-01
                        </leafValues>
                    </_>
                    <_>
                        <internalNodes>
                            0 -1 20 7.0840641856193542e-03
                        </internalNodes>
                        <leafValues>
                            1.0365735739469528e-01 -5.6946641206741333e-01
                        </leafValues>
                    </_>
                </weakClassifiers>
            </_>
            <!-- stage 12 -->
            <_>
                <maxWeakCount>22</maxWeakCount>
                <stageThreshold>-1.3036857843399048e+00</stageThreshold>
                <weakClassifiers>
                    <_>
                        <internalNodes>
                            0 -1 42 -1.2054412066936493e-01
                        </internalNodes>
                        <leafValues>
                            2.9357796907424927e-01 -4.9837663769721985e-01
                        </leafValues>
                    </_>
                    <_>
                        <internalNodes>
                            0 -1 88 -1.5478245913982391e-03
                        </internalNodes>
                        <leafValues>
                            2.4849371612071991e-01 -3.5851341485977173e-01
                        </leafValues>
                    </_>
                    <_>
                        <internalNodes>
                            0 -1 3 -9.8434220999479294e-03
                        </internalNodes>
                        <leafValues>
                            -5.8264619112014771e-01 1.1742444336414337e-01
                        </leafValues>
                    </_>
                    <_>
                        <internalNodes>
                            0 -1 312 -4.0507578523829579e-04
                        </internalNodes>
                        <leafValues>
                            2.5848820805549622e-01 -3.0147099494934082e-01
                        </leafValues>
                    </_>
                    <_>
                        <internalNodes>
                            0 -1 239 2.8848231304436922e-03
                        </internalNodes>
                        <leafValues>
                            -1.6729575395584106e-01 3.8292217254638672e-01
                        </leafValues>
                    </_>
                    <_>
                        <internalNodes>
                            0 -1 181 -4.1026324033737183e-03
                        </internalNodes>
                        <leafValues>
                            -5.0302469730377197e-01 9.7287558019161224e-02
                        </leafValues>
                    </_>
                    <_>
                        <internalNodes>
                            0 -1 165 1.2782148085534573e-02
                        </internalNodes>
                        <leafValues>
                            9.0240970253944397e-02 -6.9712704420089722e-01
                        </leafValues>
                    </_>
                    <_>
                        <internalNodes>
                            0 -1 67 -3.6929475609213114e-03
                        </internalNodes>
                        <leafValues>
                            3.1617549061775208e-01 -2.1119558811187744e-01
                        </leafValues>
                    </_>
                    <_>
                        <internalNodes>
                            0 -1 128 3.6559398286044598e-03
                        </internalNodes>
                        <leafValues>
                            -1.3513672351837158e-01 4.6929150819778442e-01
                        </leafValues>
                    </_>
                    <_>
                        <internalNodes>
                            0 -1 145 -3.0143979936838150e-02
                        </internalNodes>
                        <leafValues>
                            3.4992179274559021e-01 -2.0551709830760956e-01
                        </leafValues>
                    </_>
                    <_>
                        <internalNodes>
                            0 -1 138 -4.8688636161386967e-03
                        </internalNodes>
                        <leafValues>
                            3.4133398532867432e-01 -1.9349776208400726e-01
                        </leafValues>
                    </_>
                    <_>
                        <internalNodes>
                            0 -1 98 2.3640509694814682e-02
                        </internalNodes>
                        <leafValues>
                            -7.9452835023403168e-02 7.8526055812835693e-01
                        </leafValues>
                    </_>
                    <_>
                        <internalNodes>
                            0 -1 254 4.0498003363609314e-02
                        </internalNodes>
                        <leafValues>
                            -2.7340617775917053e-01 2.5027650594711304e-01
                        </leafValues>
                    </_>
                    <_>
                        <internalNodes>
                            0 -1 38 -9.1619305312633514e-03
                        </internalNodes>
                        <leafValues>
                            3.7877604365348816e-01 -1.5227594971656799e-01
                        </leafValues>
                    </_>
                    <_>
                        <internalNodes>
                            0 -1 78 5.3675947710871696e-03
                        </internalNodes>
                        <leafValues>
                            -1.5713578462600708e-01 4.3957757949829102e-01
                        </leafValues>
                    </_>
                    <_>
                        <internalNodes>
                            0 -1 240 -6.8237481173127890e-04
                        </internalNodes>
                        <leafValues>
                            -5.4455286264419556e-01 1.0216880589723587e-01
                        </leafValues>
                    </_>
                    <_>
                        <internalNodes>
                            0 -1 295 2.6931835338473320e-02
                        </internalNodes>
                        <leafValues>
                            -1.0669840127229691e-01 6.4351844787597656e-01
                        </leafValues>
                    </_>
                    <_>
                        <internalNodes>
                            0 -1 281 -1.5276970225386322e-04
                        </internalNodes>
                        <leafValues>
                            -6.9102728366851807e-01 1.0797782987356186e-01
                        </leafValues>
                    </_>
                    <_>
                        <internalNodes>
                            0 -1 184 2.7516583213582635e-04
                        </internalNodes>
                        <leafValues>
                            -2.8858247399330139e-01 2.3276713490486145e-01
                        </leafValues>
                    </_>
                    <_>
                        <internalNodes>
                            0 -1 31 3.1396542908623815e-04
                        </internalNodes>
                        <leafValues>
                            -1.9101309776306152e-01 3.3587956428527832e-01
                        </leafValues>
                    </_>
                    <_>
                        <internalNodes>
                            0 -1 218 2.1734829060733318e-03
                        </internalNodes>
                        <leafValues>
                            -1.0808011144399643e-01 5.8243095874786377e-01
                        </leafValues>
                    </_>
                    <_>
                        <internalNodes>
                            0 -1 160 -7.6932678930461407e-03
                        </internalNodes>
                        <leafValues>
                            -7.3966091871261597e-01 9.1392435133457184e-02
                        </leafValues>
                    </_>
                </weakClassifiers>
            </_>
            <!-- stage 13 -->
            <_>
                <maxWeakCount>18</maxWeakCount>
                <stageThreshold>-1.2324497699737549e+00</stageThreshold>
                <weakClassifiers>
                    <_>
                        <internalNodes>
                            0 -1 225 5.2840965799987316e-03
                        </internalNodes>
                        <leafValues>
                            -5.3521126508712769e-01 1.8471337854862213e-01
                        </leafValues>
                    </_>
                    <_>
                        <internalNodes>
                            0 -1 296 1.4551917091012001e-02
                        </internalNodes>
                        <leafValues>
                            -3.0398300290107727e-01 2.7923259139060974e-01
                        </leafValues>
                    </_>
                    <_>
                        <internalNodes>
                            0 -1 144 3.1163154635578394e-03
                        </internalNodes>
                        <leafValues>
                            -1.6439183056354523e-01 4.3776786327362061e-01
                        </leafValues>
                    </_>
                    <_>
                        <internalNodes>
                            0 -1 142 -2.4577795993536711e-03
                        </internalNodes>
                        <leafValues>
                            4.7370728850364685e-01 -1.3430374860763550e-01
                        </leafValues>
                    </_>
                    <_>
                        <internalNodes>
                            0 -1 56 -1.3185646384954453e-02
                        </internalNodes>
                        <leafValues>
                            3.7735158205032349e-01 -1.5378412604331970e-01
                        </leafValues>
                    </_>
                    <_>
                        <internalNodes>
                            0 -1 305 -8.3894142881035805e-03
                        </internalNodes>
                        <leafValues>
                            6.5425169467926025e-01 -9.6320688724517822e-02
                        </leafValues>
                    </_>
                    <_>
                        <internalNodes>
                            0 -1 285 -6.4613326685503125e-05
                        </internalNodes>
                        <leafValues>
                            -4.2341160774230957e-01 1.5187932550907135e-01
                        </leafValues>
                    </_>
                    <_>
                        <internalNodes>
                            0 -1 146 3.7600703537464142e-02
                        </internalNodes>
                        <leafValues>
                            9.2110656201839447e-02 -7.2362160682678223e-01
                        </leafValues>
                    </_>
                    <_>
                        <internalNodes>
                            0 -1 102 9.4456568360328674e-02
                        </internalNodes>
                        <leafValues>
                            -1.3549827039241791e-01 5.4943269491195679e-01
                        </leafValues>
                    </_>
                    <_>
                        <internalNodes>
                            0 -1 125 -2.0057322457432747e-02
                        </internalNodes>
                        <leafValues>
                            2.9600173234939575e-01 -2.4898716807365417e-01
                        </leafValues>
                    </_>
                    <_>
                        <internalNodes>
                            0 -1 22 -1.0861812159419060e-02
                        </internalNodes>
                        <leafValues>
                            2.3854909837245941e-01 -2.8644359111785889e-01
                        </leafValues>
                    </_>
                    <_>
                        <internalNodes>
                            0 -1 68 9.3490965664386749e-03
                        </internalNodes>
                        <leafValues>
                            -1.5071637928485870e-01 6.3824445009231567e-01
                        </leafValues>
                    </_>
                    <_>
                        <internalNodes>
                            0 -1 213 -2.4822432897053659e-04
                        </internalNodes>
                        <leafValues>
                            3.8053962588310242e-01 -1.6414463520050049e-01
                        </leafValues>
                    </_>
                    <_>
                        <internalNodes>
                            0 -1 310 -7.2142638600780629e-06
                        </internalNodes>
                        <leafValues>
                            -4.8766142129898071e-01 1.5647640824317932e-01
                        </leafValues>
                    </_>
                    <_>
                        <internalNodes>
                            0 -1 300 8.5709511768072844e-04
                        </internalNodes>
                        <leafValues>
                            -2.1915864944458008e-01 2.7705949544906616e-01
                        </leafValues>
                    </_>
                    <_>
                        <internalNodes>
                            0 -1 294 -1.2380926636978984e-03
                        </internalNodes>
                        <leafValues>
                            -7.9509645700454712e-01 7.3112599551677704e-02
                        </leafValues>
                    </_>
                    <_>
                        <internalNodes>
                            0 -1 127 -4.3142937123775482e-02
                        </internalNodes>
                        <leafValues>
                            -6.5092170238494873e-01 7.9024717211723328e-02
                        </leafValues>
                    </_>
                    <_>
                        <internalNodes>
                            0 -1 26 1.4047792647033930e-03
                        </internalNodes>
                        <leafValues>
                            -2.3845390975475311e-01 2.6290100812911987e-01
                        </leafValues>
                    </_>
                </weakClassifiers>
            </_>
            <!-- stage 14 -->
            <_>
                <maxWeakCount>20</maxWeakCount>
                <stageThreshold>-1.2782351970672607e+00</stageThreshold>
                <weakClassifiers>
                    <_>
                        <internalNodes>
                            0 -1 235 -5.3007826209068298e-03
                        </internalNodes>
                        <leafValues>
                            7.9229123890399933e-02 -5.9715157747268677e-01
                        </leafValues>
                    </_>
                    <_>
                        <internalNodes>
                            0 -1 5 -5.0107343122363091e-03
                        </internalNodes>
                        <leafValues>
                            2.9556968808174133e-01 -3.0228754878044128e-01
                        </leafValues>
                    </_>
                    <_>
                        <internalNodes>
                            0 -1 73 2.3284241557121277e-02
                        </internalNodes>
                        <leafValues>
                            1.0552168637514114e-01 -6.7988610267639160e-01
                        </leafValues>
                    </_>
                    <_>
                        <internalNodes>
                            0 -1 63 1.0106282308697701e-02
                        </internalNodes>
                        <leafValues>
                            1.8658420443534851e-01 -4.1309291124343872e-01
                        </leafValues>
                    </_>
                    <_>
                        <internalNodes>
                            0 -1 187 3.5913951694965363e-02
                        </internalNodes>
                        <leafValues>
                            -1.7193123698234558e-01 4.2638719081878662e-01
                        </leafValues>
                    </_>
                    <_>
                        <internalNodes>
                            0 -1 158 9.8959980532526970e-03
                        </internalNodes>
                        <leafValues>
                            1.5080934762954712e-01 -5.2902460098266602e-01
                        </leafValues>
                    </_>
                    <_>
                        <internalNodes>
                            0 -1 50 -1.5691281296312809e-03
                        </internalNodes>
                        <leafValues>
                            3.2612311840057373e-01 -1.8913304805755615e-01
                        </leafValues>
                    </_>
                    <_>
                        <internalNodes>
                            0 -1 46 1.9497174071148038e-04
                        </internalNodes>
                        <leafValues>
                            9.4956360757350922e-02 -6.7811638116836548e-01
                        </leafValues>
                    </_>
                    <_>
                        <internalNodes>
                            0 -1 147 4.5848703011870384e-03
                        </internalNodes>
                        <leafValues>
                            1.3952662050724030e-01 -4.4930690526962280e-01
                        </leafValues>
                    </_>
                    <_>
                        <internalNodes>
                            0 -1 131 2.1179020404815674e-03
                        </internalNodes>
                        <leafValues>
                            -1.2296275794506073e-01 5.0296175479888916e-01
                        </leafValues>
                    </_>
                    <_>
                        <internalNodes>
                            0 -1 91 6.7161972401663661e-04
                        </internalNodes>
                        <leafValues>
                            -2.0624943077564240e-01 3.5095772147178650e-01
                        </leafValues>
                    </_>
                    <_>
                        <internalNodes>
                            0 -1 223 -2.5920499116182327e-02
                        </internalNodes>
                        <leafValues>
                            -6.2292098999023438e-01 9.4608664512634277e-02
                        </leafValues>
                    </_>
                    <_>
                        <internalNodes>
                            0 -1 206 8.0837607383728027e-03
                        </internalNodes>
                        <leafValues>
                            7.2384558618068695e-02 -6.4489924907684326e-01
                        </leafValues>
                    </_>
                    <_>
                        <internalNodes>
                            0 -1 289 3.0986330239102244e-04
                        </internalNodes>
                        <leafValues>
                            -3.0964422225952148e-01 1.8982551991939545e-01
                        </leafValues>
                    </_>
                    <_>
                        <internalNodes>
                            0 -1 202 -2.9815081506967545e-03
                        </internalNodes>
                        <leafValues>
                            3.2948851585388184e-01 -1.8241921067237854e-01
                        </leafValues>
                    </_>
                    <_>
                        <internalNodes>
                            0 -1 53 2.9902174137532711e-03
                        </internalNodes>
                        <leafValues>
                            -1.5293560922145844e-01 4.1025543212890625e-01
                        </leafValues>
                    </_>
                    <_>
                        <internalNodes>
                            0 -1 290 -5.1273585995659232e-04
                        </internalNodes>
                        <leafValues>
                            2.6725429296493530e-01 -2.5795966386795044e-01
                        </leafValues>
                    </_>
                    <_>
                        <internalNodes>
                            0 -1 318 -6.6261468455195427e-03
                        </internalNodes>
                        <leafValues>
                            -3.8123291730880737e-01 1.5848304331302643e-01
                        </leafValues>
                    </_>
                    <_>
                        <internalNodes>
                            0 -1 308 3.8928465801291168e-04
                        </internalNodes>
                        <leafValues>
                            6.5407268702983856e-02 -7.9290628433227539e-01
                        </leafValues>
                    </_>
                    <_>
                        <internalNodes>
                            0 -1 97 1.8687399104237556e-02
                        </internalNodes>
                        <leafValues>
                            -1.1045926064252853e-01 6.2199264764785767e-01
                        </leafValues>
                    </_>
                </weakClassifiers>
            </_>
            <!-- stage 15 -->
            <_>
                <maxWeakCount>16</maxWeakCount>
                <stageThreshold>-1.2224951982498169e+00</stageThreshold>
                <weakClassifiers>
                    <_>
                        <internalNodes>
                            0 -1 83 -3.9858479052782059e-02
                        </internalNodes>
                        <leafValues>
                            2.5862067937850952e-01 -5.8076226711273193e-01
                        </leafValues>
                    </_>
                    <_>
                        <internalNodes>
                            0 -1 166 5.6819855235517025e-03
                        </internalNodes>
                        <leafValues>
                            -2.2572197020053864e-01 4.3975532054901123e-01
                        </leafValues>
                    </_>
                    <_>
                        <internalNodes>
                            0 -1 194 -3.7836343981325626e-03
                        </internalNodes>
                        <leafValues>
                            5.9789794683456421e-01 -1.1822224408388138e-01
                        </leafValues>
                    </_>
                    <_>
                        <internalNodes>
                            0 -1 8 -1.1717147572198883e-04
                        </internalNodes>
                        <leafValues>
                            -4.5495894551277161e-01 1.7503148317337036e-01
                        </leafValues>
                    </_>
                    <_>
                        <internalNodes>
                            0 -1 12 2.1372776478528976e-02
                        </internalNodes>
                        <leafValues>
                            1.5182675421237946e-01 -4.5845407247543335e-01
                        </leafValues>
                    </_>
                    <_>
                        <internalNodes>
                            0 -1 55 6.3659157603979111e-03
                        </internalNodes>
                        <leafValues>
                            1.5958738327026367e-01 -4.4155561923980713e-01
                        </leafValues>
                    </_>
                    <_>
                        <internalNodes>
                            0 -1 224 8.0374957178719342e-05
                        </internalNodes>
                        <leafValues>
                            -3.0079174041748047e-01 2.4428270757198334e-01
                        </leafValues>
                    </_>
                    <_>
                        <internalNodes>
                            0 -1 119 -7.4397521093487740e-03
                        </internalNodes>
                        <leafValues>
                            -6.9088518619537354e-01 1.0350474715232849e-01
                        </leafValues>
                    </_>
                    <_>
                        <internalNodes>
                            0 -1 161 5.7398946955800056e-03
                        </internalNodes>
                        <leafValues>
                            -1.3132551312446594e-01 6.3431197404861450e-01
                        </leafValues>
                    </_>
                    <_>
                        <internalNodes>
                            0 -1 204 -1.0959468781948090e-02
                        </internalNodes>
                        <leafValues>
                            3.4514698386192322e-01 -1.8609182536602020e-01
                        </leafValues>
                    </_>
                    <_>
                        <internalNodes>
                            0 -1 242 2.6086840778589249e-02
                        </internalNodes>
                        <leafValues>
                            -1.4513704180717468e-01 5.5893427133560181e-01
                        </leafValues>
                    </_>
                    <_>
                        <internalNodes>
                            0 -1 276 -2.0291293039917946e-02
                        </internalNodes>
                        <leafValues>
                            -6.2562632560729980e-01 1.2983004748821259e-01
                        </leafValues>
                    </_>
                    <_>
                        <internalNodes>
                            0 -1 143 1.4747126027941704e-02
                        </internalNodes>
                        <leafValues>
                            7.7609382569789886e-02 -7.4498182535171509e-01
                        </leafValues>
                    </_>
                    <_>
                        <internalNodes>
                            0 -1 253 5.4562147706747055e-03
                        </internalNodes>
                        <leafValues>
                            -1.8280899524688721e-01 4.2764112353324890e-01
                        </leafValues>
                    </_>
                    <_>
                        <internalNodes>
                            0 -1 267 1.9693798385560513e-03
                        </internalNodes>
                        <leafValues>
                            -1.5861703455448151e-01 4.0777543187141418e-01
                        </leafValues>
                    </_>
                    <_>
                        <internalNodes>
                            0 -1 28 7.3091059923171997e-02
                        </internalNodes>
                        <leafValues>
                            7.9497829079627991e-02 -8.3965295553207397e-01
                        </leafValues>
                    </_>
                </weakClassifiers>
            </_>
            <!-- stage 16 -->
            <_>
                <maxWeakCount>22</maxWeakCount>
                <stageThreshold>-1.3519027233123779e+00</stageThreshold>
                <weakClassifiers>
                    <_>
                        <internalNodes>
                            0 -1 69 -9.0874157845973969e-02
                        </internalNodes>
                        <leafValues>
                            3.8724374026060104e-02 -5.6083083152770996e-01
                        </leafValues>
                    </_>
                    <_>
                        <internalNodes>
                            0 -1 93 5.3721233271062374e-03
                        </internalNodes>
                        <leafValues>
                            -2.4663744866847992e-01 3.1913724541664124e-01
                        </leafValues>
                    </_>
                    <_>
                        <internalNodes>
                            0 -1 299 2.7756318449974060e-03
                        </internalNodes>
                        <leafValues>
                            -1.6781422495841980e-01 3.5130321979522705e-01
                        </leafValues>
                    </_>
                    <_>
                        <internalNodes>
                            0 -1 135 -2.6901293545961380e-02
                        </internalNodes>
                        <leafValues>
                            5.3387844562530518e-01 -1.1358509957790375e-01
                        </leafValues>
                    </_>
                    <_>
                        <internalNodes>
                            0 -1 18 -2.2762555629014969e-02
                        </internalNodes>
                        <leafValues>
                            2.7149653434753418e-01 -2.0301002264022827e-01
                        </leafValues>
                    </_>
                    <_>
                        <internalNodes>
                            0 -1 19 -9.9150329828262329e-02
                        </internalNodes>
                        <leafValues>
                            -8.3945041894912720e-01 6.7746885120868683e-02
                        </leafValues>
                    </_>
                    <_>
                        <internalNodes>
                            0 -1 132 -4.1597494855523109e-03
                        </internalNodes>
                        <leafValues>
                            6.2534910440444946e-01 -8.5542224347591400e-02
                        </leafValues>
                    </_>
                    <_>
                        <internalNodes>
                            0 -1 132 1.3040364719927311e-03
                        </internalNodes>
                        <leafValues>
                            -1.2241267412900925e-01 3.8985571265220642e-01
                        </leafValues>
                    </_>
                    <_>
                        <internalNodes>
                            0 -1 282 2.8729945188388228e-04
                        </internalNodes>
                        <leafValues>
                            1.4980551600456238e-01 -4.9983152747154236e-01
                        </leafValues>
                    </_>
                    <_>
                        <internalNodes>
                            0 -1 111 -3.4434951841831207e-02
                        </internalNodes>
                        <leafValues>
                            7.6905363798141479e-01 -9.7722381353378296e-02
                        </leafValues>
                    </_>
                    <_>
                        <internalNodes>
                            0 -1 306 3.6457451060414314e-03
                        </internalNodes>
                        <leafValues>
                            -2.3479573428630829e-01 2.4531628191471100e-01
                        </leafValues>
                    </_>
                    <_>
                        <internalNodes>
                            0 -1 17 5.1779169589281082e-03
                        </internalNodes>
                        <leafValues>
                            -1.0261768847703934e-01 5.4563879966735840e-01
                        </leafValues>
                    </_>
                    <_>
                        <internalNodes>
                            0 -1 205 2.2082161740399897e-04
                        </internalNodes>
                        <leafValues>
                            -2.5139626860618591e-01 2.3363561928272247e-01
                        </leafValues>
                    </_>
                    <_>
                        <internalNodes>
                            0 -1 210 -2.0756275625899434e-04
                        </internalNodes>
                        <leafValues>
                            3.0577826499938965e-01 -1.7535506188869476e-01
                        </leafValues>
                    </_>
                    <_>
                        <internalNodes>
                            0 -1 0 -1.6286625759676099e-04
                        </internalNodes>
                        <leafValues>
                            -7.2820866107940674e-01 7.9561397433280945e-02
                        </leafValues>
                    </_>
                    <_>
                        <internalNodes>
                            0 -1 211 5.6184572167694569e-04
                        </internalNodes>
                        <leafValues>
                            -1.7073099315166473e-01 3.4765264391899109e-01
                        </leafValues>
                    </_>
                    <_>
                        <internalNodes>
                            0 -1 120 -1.9485140219330788e-03
                        </internalNodes>
                        <leafValues>
                            2.2379674017429352e-01 -2.3349744081497192e-01
                        </leafValues>
                    </_>
                    <_>
                        <internalNodes>
                            0 -1 228 7.8293159604072571e-03
                        </internalNodes>
                        <leafValues>
                            7.8275881707668304e-02 -6.9502162933349609e-01
                        </leafValues>
                    </_>
                    <_>
                        <internalNodes>
                            0 -1 288 -3.7242425605654716e-05
                        </internalNodes>
                        <leafValues>
                            1.9889168441295624e-01 -2.7633205056190491e-01
                        </leafValues>
                    </_>
                    <_>
                        <internalNodes>
                            0 -1 64 3.5611054301261902e-01
                        </internalNodes>
                        <leafValues>
                            -8.2103163003921509e-02 6.9913613796234131e-01
                        </leafValues>
                    </_>
                    <_>
                        <internalNodes>
                            0 -1 6 -1.2851852225139737e-03
                        </internalNodes>
                        <leafValues>
                            2.0568591356277466e-01 -2.8137817978858948e-01
                        </leafValues>
                    </_>
                    <_>
                        <internalNodes>
                            0 -1 61 8.7027344852685928e-04
                        </internalNodes>
                        <leafValues>
                            1.1865823715925217e-01 -5.0583225488662720e-01
                        </leafValues>
                    </_>
                </weakClassifiers>
            </_>
            <!-- stage 17 -->
            <_>
                <maxWeakCount>23</maxWeakCount>
                <stageThreshold>-1.2732748985290527e+00</stageThreshold>
                <weakClassifiers>
                    <_>
                        <internalNodes>
                            0 -1 241 -8.9467307552695274e-03
                        </internalNodes>
                        <leafValues>
                            -9.6477791666984558e-02 -6.1104142665863037e-01
                        </leafValues>
                    </_>
                    <_>
                        <internalNodes>
                            0 -1 168 -1.1456899810582399e-03
                        </internalNodes>
                        <leafValues>
                            1.7023324966430664e-01 -3.2943215966224670e-01
                        </leafValues>
                    </_>
                    <_>
                        <internalNodes>
                            0 -1 220 3.9269104599952698e-03
                        </internalNodes>
                        <leafValues>
                            -1.7855681478977203e-01 3.3162781596183777e-01
                        </leafValues>
                    </_>
                    <_>
                        <internalNodes>
                            0 -1 152 -1.4115258120000362e-02
                        </internalNodes>
                        <leafValues>
                            6.1835128068923950e-01 -8.5529804229736328e-02
                        </leafValues>
                    </_>
                    <_>
                        <internalNodes>
                            0 -1 13 2.0779643091373146e-04
                        </internalNodes>
                        <leafValues>
                            9.7322478890419006e-02 -5.6524312496185303e-01
                        </leafValues>
                    </_>
                    <_>
                        <internalNodes>
                            0 -1 94 -1.4703487977385521e-03
                        </internalNodes>
                        <leafValues>
                            2.9650625586509705e-01 -1.6791252791881561e-01
                        </leafValues>
                    </_>
                    <_>
                        <internalNodes>
                            0 -1 80 1.3474204577505589e-02
                        </internalNodes>
                        <leafValues>
                            -1.1199422180652618e-01 5.7643204927444458e-01
                        </leafValues>
                    </_>
                    <_>
                        <internalNodes>
                            0 -1 112 2.7156956493854523e-02
                        </internalNodes>
                        <leafValues>
                            -1.7931228876113892e-01 3.4998044371604919e-01
                        </leafValues>
                    </_>
                    <_>
                        <internalNodes>
                            0 -1 159 1.2032703962177038e-03
                        </internalNodes>
                        <leafValues>
                            -2.8273174166679382e-01 2.0076149702072144e-01
                        </leafValues>
                    </_>
                    <_>
                        <internalNodes>
                            0 -1 129 4.7753648832440376e-03
                        </internalNodes>
                        <leafValues>
                            1.2861295044422150e-01 -4.6788153052330017e-01
                        </leafValues>
                    </_>
                    <_>
                        <internalNodes>
                            0 -1 106 1.7719499301165342e-03
                        </internalNodes>
                        <leafValues>
                            -2.0820477604866028e-01 3.0853259563446045e-01
                        </leafValues>
                    </_>
                    <_>
                        <internalNodes>
                            0 -1 167 9.4769068527966738e-04
                        </internalNodes>
                        <leafValues>
                            -1.7670822143554688e-01 3.4109637141227722e-01
                        </leafValues>
                    </_>
                    <_>
                        <internalNodes>
                            0 -1 261 -1.7933794879354537e-05
                        </internalNodes>
                        <leafValues>
                            -4.2071294784545898e-01 1.3603670895099640e-01
                        </leafValues>
                    </_>
                    <_>
                        <internalNodes>
                            0 -1 291 1.5376114752143621e-03
                        </internalNodes>
                        <leafValues>
                            -1.5669980645179749e-01 3.7481725215911865e-01
                        </leafValues>
                    </_>
                    <_>
                        <internalNodes>
                            0 -1 257 -1.0653591714799404e-02
                        </internalNodes>
                        <leafValues>
