<?xml version="1.0"?>
<opencv_storage>
    <stage7>
        <maxWeakCount>6</maxWeakCount>
        <stageThreshold>-1.2188880443572998e+00</stageThreshold>
        <weakClassifiers>
            <_>
                <internalNodes>
                    0 -1 80153 1.2537273578345776e-03
                </internalNodes>
                <leafValues>
                    -5.3378379344940186e-01 5.0340133905410767e-01
                </leafValues>
            </_>
            <_>
                <internalNodes>
                    0 -1 107465 -5.5217955261468887e-02
                </internalNodes>
                <leafValues>
                    7.7969193458557129e-01 -3.3371901512145996e-01
                </leafValues>
            </_>
            <_>
                <internalNodes>
                    0 -1 47171 -5.8427016483619809e-04
                </internalNodes>
                <leafValues>
                    6.1111217737197876e-01 -4.8013758659362793e-01
                </leafValues>
            </_>
            <_>
                <internalNodes>
                    0 -1 24900 -6.4472696976736188e-05
                </internalNodes>
                <leafValues>
                    -6.8956410884857178e-01 3.5735553503036499e-01
                </leafValues>
            </_>
            <_>
                <internalNodes>
                    0 -1 10512 -3.6811078898608685e-03
                </internalNodes>
                <leafValues>
                    2.9969957470893860e-01 -8.9576709270477295e-01
                </leafValues>
            </_>
            <_>
                <internalNodes>
                    0 -1 123574 1.5268602510332130e-05
                </internalNodes>
                <leafValues>
                    -5.7263296842575073e-01 3.9332771301269531e-01
                </leafValues>
            </_>
        </weakClassifiers>
    </stage7>
</opencv_storage>
