<?xml version="1.0"?>
<opencv_storage>
    <stage4>
        <maxWeakCount>6</maxWeakCount>
        <stageThreshold>-1.0473723411560059e+00</stageThreshold>
        <weakClassifiers>
            <_>
                <internalNodes>
                    0 -1 29218 -1.2331705074757338e-03
                </internalNodes>
                <leafValues>
                    4.7508305311203003e-01 -5.2941179275512695e-01
                </leafValues>
            </_>
            <_>
                <internalNodes>
                    0 -1 7657 -9.5578774809837341e-02
                </internalNodes>
                <leafValues>
                    6.8396097421646118e-01 -3.4952738881111145e-01
                </leafValues>
            </_>
            <_>
                <internalNodes>
                    0 -1 80391 -3.9855749346315861e-03
                </internalNodes>
                <leafValues>
                    4.4910967350006104e-01 -5.4988312721252441e-01
                </leafValues>
            </_>
            <_>
                <internalNodes>
                    0 -1 33782 -3.4638371318578720e-02
                </internalNodes>
                <leafValues>
                    8.4849691390991211e-01 -3.6914417147636414e-01
                </leafValues>
            </_>
            <_>
                <internalNodes>
                    0 -1 118371 -6.9404413807205856e-05
                </internalNodes>
                <leafValues>
                    -9.5925033092498779e-01 3.1211760640144348e-01
                </leafValues>
            </_>
            <_>
                <internalNodes>
                    0 -1 118371 3.2842066138982773e-04
                </internalNodes>
                <leafValues>
                    3.1776982545852661e-01 -7.7916467189788818e-01
                </leafValues>
            </_>
        </weakClassifiers>
    </stage4>
</opencv_storage>
