<?xml version="1.0"?>
<opencv_storage>
    <stage13>
        <maxWeakCount>5</maxWeakCount>
        <stageThreshold>-1.0354773998260498e+00</stageThreshold>
        <weakClassifiers>
            <_>
                <internalNodes>
                    0 -1 112399 -7.0912942290306091e-02
                </internalNodes>
                <leafValues>
                    6.3333332538604736e-01 -4.6285715699195862e-01
                </leafValues>
            </_>
            <_>
                <internalNodes>
                    0 -1 100034 1.5764556883368641e-04
                </internalNodes>
                <leafValues>
                    -8.5626757144927979e-01 3.8822591304779053e-01
                </leafValues>
            </_>
            <_>
                <internalNodes>
                    0 -1 4519 5.0004327204078436e-04
                </internalNodes>
                <leafValues>
                    2.7400869131088257e-01 -8.3708751201629639e-01
                </leafValues>
            </_>
            <_>
                <internalNodes>
                    0 -1 79432 -4.9326784210279584e-04
                </internalNodes>
                <leafValues>
                    -6.0812431573867798e-01 4.7042253613471985e-01
                </leafValues>
            </_>
            <_>
                <internalNodes>
                    0 -1 33060 2.4352982291020453e-04
                </internalNodes>
                <leafValues>
                    -5.9691226482391357e-01 4.8436567187309265e-01
                </leafValues>
            </_>
        </weakClassifiers>
    </stage13>
</opencv_storage>
