<?xml version="1.0"?>
<opencv_storage>
    <stage12>
        <maxWeakCount>4</maxWeakCount>
        <stageThreshold>-2.9635298252105713e-01</stageThreshold>
        <weakClassifiers>
            <_>
                <internalNodes>
                    0 -1 122758 -1.6532506560906768e-04
                </internalNodes>
                <leafValues>
                    -7.6271188259124756e-01 4.8022598028182983e-01
                </leafValues>
            </_>
            <_>
                <internalNodes>
                    0 -1 28867 5.8335084468126297e-03
                </internalNodes>
                <leafValues>
                    -4.8675554990768433e-01 8.8469761610031128e-01
                </leafValues>
            </_>
            <_>
                <internalNodes>
                    0 -1 3593 -5.5001291912049055e-04
                </internalNodes>
                <leafValues>
                    -9.2523515224456787e-01 3.7935450673103333e-01
                </leafValues>
            </_>
            <_>
                <internalNodes>
                    0 -1 38116 -2.8632668778300285e-02
                </internalNodes>
                <leafValues>
                    5.7375991344451904e-01 -5.4635989665985107e-01
                </leafValues>
            </_>
        </weakClassifiers>
    </stage12>
</opencv_storage>
