<?xml version="1.0"?>
<opencv_storage>
    <stage2>
        <maxWeakCount>6</maxWeakCount>
        <stageThreshold>-9.9495434761047363e-01</stageThreshold>
        <weakClassifiers>
            <_>
                <internalNodes>
                    0 -1 466 -5.5715477466583252e-01
                </internalNodes>
                <leafValues>
                    6.7330676317214966e-01 -5.2802360057830811e-01
                </leafValues>
            </_>
            <_>
                <internalNodes>
                    0 -1 97 -7.9650853876955807e-05
                </internalNodes>
                <leafValues>
                    -7.7575397491455078e-01 4.9223366379737854e-01
                </leafValues>
            </_>
            <_>
                <internalNodes>
                    0 -1 110662 4.3077048030681908e-04
                </internalNodes>
                <leafValues>
                    -7.5648266077041626e-01 4.5355650782585144e-01
                </leafValues>
            </_>
            <_>
                <internalNodes>
                    0 -1 38966 1.1745430529117584e-03
                </internalNodes>
                <leafValues>
                    -4.5521691441535950e-01 6.7347121238708496e-01
                </leafValues>
            </_>
            <_>
                <internalNodes>
                    0 -1 99861 2.2903974168002605e-03
                </internalNodes>
                <leafValues>
                    -4.0581595897674561e-01 7.0652782917022705e-01
                </leafValues>
            </_>
            <_>
                <internalNodes>
                    0 -1 55683 3.3963709138333797e-03
                </internalNodes>
                <leafValues>
                    -3.8733544945716858e-01 7.9384171962738037e-01
                </leafValues>
            </_>
        </weakClassifiers>
    </stage2>
</opencv_storage>
