<?xml version="1.0"?>
<opencv_storage>
    <stage17>
        <maxWeakCount>4</maxWeakCount>
        <stageThreshold>-2.2316163778305054e-01</stageThreshold>
        <weakClassifiers>
            <_>
                <internalNodes>
                    0 -1 108372 -2.7982711326330900e-03
                </internalNodes>
                <leafValues>
                    -6.1454546451568604e-01 5.0476193428039551e-01
                </leafValues>
            </_>
            <_>
                <internalNodes>
                    0 -1 121089 1.0288197081536055e-03
                </internalNodes>
                <leafValues>
                    3.0988255143165588e-01 -9.6166646480560303e-01
                </leafValues>
            </_>
            <_>
                <internalNodes>
                    0 -1 63219 -3.6249193362891674e-04
                </internalNodes>
                <leafValues>
                    6.1100715398788452e-01 -5.3720802068710327e-01
                </leafValues>
            </_>
            <_>
                <internalNodes>
                    0 -1 41172 9.2983397189527750e-04
                </internalNodes>
                <leafValues>
                    -4.3222099542617798e-01 7.7095091342926025e-01
                </leafValues>
            </_>
        </weakClassifiers>
    </stage17>
</opencv_storage>
