<?xml version="1.0"?>
<opencv_storage>
    <stage19>
        <maxWeakCount>4</maxWeakCount>
        <stageThreshold>-3.6808651685714722e-01</stageThreshold>
        <weakClassifiers>
            <_>
                <internalNodes>
                    0 -1 6572 -1.1419571936130524e-02
                </internalNodes>
                <leafValues>
                    -5.5076920986175537e-01 6.3773584365844727e-01
                </leafValues>
            </_>
            <_>
                <internalNodes>
                    0 -1 8551 -1.3553936732932925e-03
                </internalNodes>
                <leafValues>
                    -9.1158825159072876e-01 3.7414646148681641e-01
                </leafValues>
            </_>
            <_>
                <internalNodes>
                    0 -1 110544 6.0085192671976984e-05
                </internalNodes>
                <leafValues>
                    -8.0857735872268677e-01 3.7864595651626587e-01
                </leafValues>
            </_>
            <_>
                <internalNodes>
                    0 -1 64633 4.7598984092473984e-03
                </internalNodes>
                <leafValues>
                    -5.2127832174301147e-01 7.1562498807907104e-01
                </leafValues>
            </_>
        </weakClassifiers>
    </stage19>
</opencv_storage>
