<?xml version="1.0"?>
<opencv_storage>
    <stage9>
        <maxWeakCount>4</maxWeakCount>
        <stageThreshold>-4.6868786215782166e-01</stageThreshold>
        <weakClassifiers>
            <_>
                <internalNodes>
                    0 -1 5921 -4.8201521858572960e-03
                </internalNodes>
                <leafValues>
                    3.5121950507164001e-01 -8.5555553436279297e-01
                </leafValues>
            </_>
            <_>
                <internalNodes>
                    0 -1 7018 1.5426730897161178e-05
                </internalNodes>
                <leafValues>
                    -5.5510330200195312e-01 5.3052192926406860e-01
                </leafValues>
            </_>
            <_>
                <internalNodes>
                    0 -1 55775 -5.4988672491163015e-04
                </internalNodes>
                <leafValues>
                    5.1900148391723633e-01 -5.6646347045898438e-01
                </leafValues>
            </_>
            <_>
                <internalNodes>
                    0 -1 91023 -2.3686564527451992e-03
                </internalNodes>
                <leafValues>
                    -7.7999877929687500e-01 4.2280924320220947e-01
                </leafValues>
            </_>
        </weakClassifiers>
    </stage9>
</opencv_storage>
