<?xml version="1.0"?>
<opencv_storage>
    <stage6>
        <maxWeakCount>8</maxWeakCount>
        <stageThreshold>-5.0216990709304810e-01</stageThreshold>
        <weakClassifiers>
            <_>
                <internalNodes>
                    0 -1 542 -2.8556227684020996e-01
                </internalNodes>
                <leafValues>
                    5.3846156597137451e-01 -4.1690963506698608e-01
                </leafValues>
            </_>
            <_>
                <internalNodes>
                    0 -1 20590 -6.1645847745239735e-04
                </internalNodes>
                <leafValues>
                    4.9479293823242188e-01 -4.6923980116844177e-01
                </leafValues>
            </_>
            <_>
                <internalNodes>
                    0 -1 76480 6.9826105609536171e-03
                </internalNodes>
                <leafValues>
                    3.2009243965148926e-01 -7.2885227203369141e-01
                </leafValues>
            </_>
            <_>
                <internalNodes>
                    0 -1 85278 -6.3974480144679546e-04
                </internalNodes>
                <leafValues>
                    4.2619916796684265e-01 -5.8348846435546875e-01
                </leafValues>
            </_>
            <_>
                <internalNodes>
                    0 -1 16542 -6.9216606789268553e-05
                </internalNodes>
                <leafValues>
                    -8.9299404621124268e-01 2.1592567861080170e-01
                </leafValues>
            </_>
            <_>
                <internalNodes>
                    0 -1 121675 -1.4911736547946930e-01
                </internalNodes>
                <leafValues>
                    8.0703353881835938e-01 -2.8639993071556091e-01
                </leafValues>
            </_>
            <_>
                <internalNodes>
                    0 -1 46894 -2.6523938868194818e-03
                </internalNodes>
                <leafValues>
                    6.4070898294448853e-01 -3.5707780718803406e-01
                </leafValues>
            </_>
            <_>
                <internalNodes>
                    0 -1 18783 4.1191873606294394e-05
                </internalNodes>
                <leafValues>
                    2.9513102769851685e-01 -7.8765994310379028e-01
                </leafValues>
            </_>
        </weakClassifiers>
    </stage6>
</opencv_storage>
